1.392931342124938965e-01 -5.578062310814857483e-02 -1.283913254737854004e-01 2.333113551139831543e-02 5.478940904140472412e-02 1.694263331592082977e-02 -7.686263322830200195e-02 -1.033283025026321411e-01 1.050353720784187317e-01 -3.345812670886516571e-03
1.228361725807189941e-01 -3.997281659394502640e-03 9.752435609698295593e-03 2.337426133453845978e-02 -1.882888078689575195e-01 -6.854415684938430786e-02 -4.596367850899696350e-02 -1.295099705457687378e-01 1.612884402275085449e-01 -4.671113193035125732e-02
-1.174525171518325806e-01 -6.571985036134719849e-02 7.824279367923736572e-02 -1.139775514602661133e-01 7.872136309742927551e-03 1.227629110217094421e-01 -1.305470317602157593e-01 -2.827466465532779694e-02 -1.142949052155017853e-02 -4.518112540245056152e-02
1.485006324946880341e-02 -1.168392412364482880e-02 -3.118007630109786987e-02 -1.114293634891510010e-01 -1.405512243509292603e-01 4.997180076315999031e-04 -1.285122781991958618e-01 -6.099337711930274963e-02 -1.630841046571731567e-01 2.658500522375106812e-02
-3.454909473657608032e-02 -2.093398012220859528e-02 -5.163758993148803711e-02 -1.809577271342277527e-02 -5.015112832188606262e-02 -1.841989532113075256e-02 -9.203965216875076294e-02 -1.431157886981964111e-01 -2.905560657382011414e-02 -1.094684824347496033e-01
-8.011578768491744995e-02 -6.102223694324493408e-02 -2.302477695047855377e-02 -1.668027974665164948e-02 1.856676191091537476e-01 1.381309777498245239e-01 1.132668927311897278e-01 4.870218411087989807e-02 -2.311166375875473022e-02 -9.105062484741210938e-02
7.935094833374023438e-02 1.072790287435054779e-02 4.340565949678421021e-02 -3.015056438744068146e-02 4.075461998581886292e-02 1.853970289230346680e-01 -1.255168169736862183e-01 -1.343002319335937500e-01 -2.296808362007141113e-02 1.169372648000717163e-01
-7.186950743198394775e-02 -8.829176425933837891e-02 -1.098507782444357872e-03 -1.080539450049400330e-01 1.080340668559074402e-01 9.734123200178146362e-02 -9.505717456340789795e-02 2.489919215440750122e-02 5.876300111413002014e-02 -1.708098500967025757e-01
1.829548506066203117e-03 1.035655289888381958e-01 1.099807024002075195e-01 1.680838912725448608e-01 9.095707535743713379e-02 7.435581088066101074e-02 -6.552896229550242424e-04 -4.273741319775581360e-02 -1.565174572169780731e-02 -2.031644620001316071e-02
3.015829995274543762e-02 1.645475253462791443e-02 -1.444035093300044537e-03 8.699323982000350952e-02 1.532445847988128662e-01 -4.138680174946784973e-02 -1.354795843362808228e-01 4.399398341774940491e-02 1.079989895224571228e-01 -1.130669265985488892e-01
1.302763074636459351e-01 -9.945613145828247070e-02 -4.712534695863723755e-02 -1.520005762577056885e-01 -2.881354652345180511e-02 -8.449801802635192871e-02 -8.128038793802261353e-02 -1.486821174621582031e-01 7.049005478620529175e-02 1.941773295402526855e-01
3.760493546724319458e-02 1.269948929548263550e-01 -9.942019358277320862e-03 1.506917625665664673e-01 1.098398938775062561e-01 -6.222803145647048950e-02 1.683237962424755096e-02 3.328941017389297485e-02 4.494273290038108826e-02 -7.477662712335586548e-02
9.986787289381027222e-02 -8.034506440162658691e-02 -1.400431394577026367e-01 1.086954846978187561e-01 -7.065112143754959106e-02 7.343372702598571777e-02 1.555200517177581787e-01 5.984125286340713501e-02 -4.099935665726661682e-02 1.547128707170486450e-01
-1.564247608184814453e-01 -3.829033300280570984e-02 2.239749394357204437e-02 1.483497023582458496e-02 -8.788812905550003052e-02 -9.442844241857528687e-02 2.277312055230140686e-02 -1.136224791407585144e-01 -4.224071651697158813e-02 -9.761757403612136841e-02
-1.274790465831756592e-01 4.347362741827964783e-02 -5.988971516489982605e-02 -1.737093627452850342e-01 2.935556881129741669e-02 -7.657074928283691406e-02 1.352818459272384644e-01 1.188597381114959717e-01 -1.103199794888496399e-01 4.211554676294326782e-02
6.518224626779556274e-02 5.686674267053604126e-02 3.376647131517529488e-03 -1.765703707933425903e-01 -5.433060228824615479e-02 -5.815275758504867554e-02 3.110653720796108246e-02 -5.504125356674194336e-02 9.901660680770874023e-02 1.001960486173629761e-01
-9.518907964229583740e-02 7.515818625688552856e-02 5.900940299034118652e-02 -7.532250601798295975e-03 -2.774011529982089996e-02 1.328281592577695847e-02 -1.204900369048118591e-01 -1.105062738060951233e-01 -1.641414016485214233e-01 -1.289520859718322754e-01
2.315415441989898682e-02 1.398207992315292358e-01 -1.019499525427818298e-01 5.495207011699676514e-02 -4.159162193536758423e-02 1.574072539806365967e-01 -4.505494236946105957e-02 1.052011400461196899e-01 8.851043134927749634e-02 7.569042593240737915e-02
5.187589675188064575e-02 1.492908746004104614e-01 1.742160022258758545e-01 1.205117702484130859e-01 7.533720135688781738e-02 2.858700416982173920e-02 1.362124383449554443e-01 -1.365765649825334549e-02 -7.372733950614929199e-02 -8.811053633689880371e-02
-1.180963590741157532e-01 4.221307113766670227e-02 1.140881776809692383e-01 1.750238090753555298e-01 7.892002165317535400e-02 1.208883225917816162e-01 9.175625443458557129e-02 -1.022150665521621704e-01 -9.100990742444992065e-02 -4.455457255244255066e-02
1.104827150702476501e-01 -2.749250503256917000e-03 9.320827573537826538e-02 8.097764104604721069e-02 4.946222156286239624e-02 4.690974578261375427e-02 8.275919593870639801e-03 4.170625284314155579e-02 -5.958407651633024216e-03 1.340290457010269165e-01
7.830627262592315674e-02 8.522927016019821167e-02 5.941090360283851624e-02 -6.954008340835571289e-02 -4.237117618322372437e-02 -3.421172127127647400e-02 -2.955071255564689636e-02 -8.850684762001037598e-02 -1.040365621447563171e-01 -1.415573954582214355e-01
2.979670837521553040e-02 -1.938544958829879761e-02 -4.520406946539878845e-02 5.966551974415779114e-02 6.988708674907684326e-02 3.652795404195785522e-02 -6.951486319303512573e-02 -8.639121800661087036e-02 -4.925210028886795044e-03 -1.328180264681577682e-02
9.301284700632095337e-02 4.190606065094470978e-03 -7.592309266328811646e-02 9.519122540950775146e-02 4.116234369575977325e-03 -1.102999597787857056e-01 -1.371427252888679504e-02 -4.568163678050041199e-02 2.485063672065734863e-02 -4.156876355409622192e-02
-9.657123684883117676e-02 -9.246403723955154419e-02 1.658505648374557495e-01 -8.804568648338317871e-02 1.400453001260757446e-01 -5.132189393043518066e-02 -1.170356497168540955e-01 3.445273265242576599e-02 4.067097604274749756e-02 1.733512729406356812e-01
1.032066158950328827e-02 -5.819783359766006470e-02 -6.101754307746887207e-02 -8.324817754328250885e-03 7.970804721117019653e-02 1.104296818375587463e-01 2.788394875824451447e-02 -4.134897515177726746e-02 5.037539824843406677e-02 -7.204389572143554688e-02
9.661637991666793823e-02 -4.446685686707496643e-02 -4.688483849167823792e-02 -5.639085173606872559e-02 1.058349758386611938e-02 1.103871092200279236e-01 1.298474371433258057e-01 -3.985937312245368958e-02 3.017843514680862427e-02 -1.524972617626190186e-01
1.613868176937103271e-01 -1.114274486899375916e-01 -1.166052892804145813e-01 3.487842530012130737e-02 3.014604747295379639e-02 1.664553955197334290e-02 7.918747514486312866e-02 -8.985231979750096798e-04 8.826152235269546509e-02 -8.000124245882034302e-02
-1.275339573621749878e-01 -1.507147401571273804e-01 5.015210062265396118e-02 -9.312673658132553101e-02 2.388164028525352478e-02 2.674630284309387207e-02 2.439578808844089508e-02 1.041433662176132202e-01 -1.687006950378417969e-01 1.315051913261413574e-01
-4.625374823808670044e-02 2.908547967672348022e-02 -5.355047062039375305e-03 -5.109667778015136719e-02 -1.036457438021898270e-02 -8.768572658300399780e-02 -1.592850983142852783e-01 7.081689313054084778e-03 -1.003655884414911270e-02 8.835345506668090820e-03
8.509092032909393311e-02 -6.525113433599472046e-02 -1.099840775132179260e-01 4.311799630522727966e-02 -1.260134130716323853e-01 6.715850532054901123e-02 2.509445510804653168e-02 -1.171261910349130630e-02 -1.063931733369827271e-01 -1.134720370173454285e-01
-4.440866876393556595e-03 1.306914091110229492e-01 1.245440244674682617e-01 1.754456758499145508e-01 -5.944048520177602768e-03 -9.734716266393661499e-02 5.786091787740588188e-04 -1.041851937770843506e-02 2.767014876008033752e-02 -2.583596296608448029e-02
-1.058421097695827484e-02 4.866593331098556519e-02 -4.008356947451829910e-03 -3.946713730692863464e-02 7.336205244064331055e-02 1.697302609682083130e-02 -3.821860766038298607e-03 2.301392704248428345e-02 9.881945326924324036e-03 -4.222442582249641418e-02
5.329526215791702271e-02 -1.649786382913589478e-01 -1.462384685873985291e-02 -7.134006172418594360e-02 3.209534287452697754e-02 -3.707972913980484009e-02 -1.697825789451599121e-01 -8.130283653736114502e-02 -9.068015217781066895e-02 -1.190746277570724487e-01
3.337880223989486694e-02 1.628461629152297974e-01 4.524702206254005432e-02 7.597067207098007202e-02 -3.245711699128150940e-02 9.038014709949493408e-02 -8.312463015317916870e-02 -1.572491973638534546e-01 6.157169863581657410e-02 -7.316415011882781982e-02
-1.237374916672706604e-01 -5.649971216917037964e-02 6.921035796403884888e-02 9.616562724113464355e-02 8.524962514638900757e-02 3.473226726055145264e-02 1.654040813446044922e-02 1.660821586847305298e-01 4.281312972307205200e-02 3.575153276324272156e-02
4.513573274016380310e-02 3.228292614221572876e-02 -1.596587747335433960e-01 8.262428641319274902e-02 1.040980741381645203e-01 -2.513655461370944977e-02 6.723280251026153564e-02 -8.447181433439254761e-02 -6.062726676464080811e-02 1.170468032360076904e-01
-1.579404324293136597e-01 9.757371246814727783e-02 -1.566357165575027466e-01 4.265307262539863586e-02 -4.518350213766098022e-02 -8.541710674762725830e-02 -1.080661416053771973e-01 5.017784982919692993e-02 2.245240658521652222e-02 -1.514753699302673340e-01
-4.354504868388175964e-02 -1.577152162790298462e-01 2.470223605632781982e-02 1.980393752455711365e-02 7.602135092020034790e-02 4.655344784259796143e-02 8.037462085485458374e-02 6.249887123703956604e-02 9.540854394435882568e-02 1.772311031818389893e-01
-3.664480522274971008e-02 5.276528745889663696e-02 -4.688188061118125916e-02 1.053447499871253967e-01 6.935057044029235840e-02 -6.936939060688018799e-02 9.247320890426635742e-02 1.624932140111923218e-01 8.224875479936599731e-02 7.815743237733840942e-02
-1.936785690486431122e-02 -4.613761231303215027e-02 8.432533591985702515e-03 1.282674521207809448e-01 -3.852029889822006226e-02 8.785372972488403320e-02 1.115546375513076782e-02 -5.350329726934432983e-02 2.526321820914745331e-02 -9.223978221416473389e-02
-3.176052495837211609e-02 -1.399112306535243988e-02 3.744695708155632019e-02 1.456358730792999268e-01 -4.529494419693946838e-02 1.720521599054336548e-01 -1.090514585375785828e-01 1.023845523595809937e-01 -4.911772906780242920e-03 -1.744223982095718384e-01
-2.799554355442523956e-02 -1.000306233763694763e-01 9.554276615381240845e-02 3.488978371024131775e-02 1.221768110990524292e-01 -9.784272871911525726e-03 5.799423903226852417e-02 -1.186642982065677643e-02 1.282230857759714127e-02 -8.518024533987045288e-02
4.861075803637504578e-02 -5.967100337147712708e-02 -7.903621345758438110e-02 -1.481307595968246460e-01 1.311459094285964966e-01 1.239823698997497559e-01 1.527206040918827057e-02 3.802648559212684631e-02 -8.719163388013839722e-02 -1.732056698529049754e-04
1.824986888095736504e-03 -1.211738958954811096e-01 -5.904582142829895020e-02 3.564300388097763062e-02 -1.676340103149414062e-01 4.874478559941053391e-03 2.565124630928039551e-02 -1.526942104101181030e-02 -4.670248832553625107e-03 -7.365401834249496460e-02
-3.970112279057502747e-02 -1.600981689989566803e-02 -1.518034338951110840e-01 -9.568132460117340088e-02 -1.912052184343338013e-02 -1.057622767984867096e-02 1.216792985796928406e-01 7.524082064628601074e-02 3.460815176367759705e-02 -7.476699352264404297e-02
6.426773965358734131e-02 6.892456859350204468e-02 -3.158420789986848831e-03 4.734154208563268185e-04 -8.975978940725326538e-02 7.462444901466369629e-02 4.446584265679121017e-03 -6.544420868158340454e-02 6.120748445391654968e-02 1.407390087842941284e-01
-6.211851537227630615e-02 4.844420403242111206e-02 -5.399404466152191162e-02 -2.843461185693740845e-02 1.059862226247787476e-01 3.185434639453887939e-02 9.009806811809539795e-02 -7.100349664688110352e-02 2.506958879530429840e-02 4.133131727576255798e-02
1.161036361008882523e-02 -1.450541317462921143e-01 1.099540516734123230e-01 8.652914315462112427e-02 7.880326360464096069e-02 3.556570783257484436e-02 8.532273583114147186e-03 -1.060146167874336243e-01 1.149879693984985352e-01 -5.412675440311431885e-02
-9.450296312570571899e-02 -1.315370202064514160e-02 4.010320641100406647e-03 9.513828158378601074e-02 1.653852406889200211e-03 8.349309861660003662e-02 -3.185347467660903931e-02 8.466356992721557617e-02 1.793354153633117676e-01 6.366989761590957642e-02
-4.392446950078010559e-02 5.326409265398979187e-02 -6.020720303058624268e-02 8.163341879844665527e-02 7.675039768218994141e-02 -5.828040838241577148e-02 -3.650000318884849548e-02 -4.683430120348930359e-02 -1.746338419616222382e-02 -4.725148528814315796e-02
1.379631757736206055e-01 -1.960314996540546417e-02 1.475252062082290649e-01 -9.921262040734291077e-03 6.303987652063369751e-02 1.600299775600433350e-01 1.102199181914329529e-01 -3.714204952120780945e-02 -1.147884596139192581e-02 -2.725211344659328461e-02
-6.696236785501241684e-03 1.326843500137329102e-01 -8.414723724126815796e-02 6.241105124354362488e-02 1.429286748170852661e-01 -8.167072385549545288e-02 2.763691358268260956e-02 6.589760631322860718e-02 2.956533804535865784e-02 -4.321048036217689514e-02
6.683290749788284302e-02 -5.402459949254989624e-02 -3.088126704096794128e-02 -2.875374630093574524e-02 1.647000163793563843e-01 -1.586767137050628662e-01 8.192132413387298584e-02 6.092342361807823181e-02 6.267182528972625732e-02 -3.988352045416831970e-02
6.203371658921241760e-02 -3.544699773192405701e-02 -1.279156357049942017e-01 -3.080044407397508621e-03 -5.586414411664009094e-02 -1.472032964229583740e-01 8.933398127555847168e-02 9.793235361576080322e-02 3.515241295099258423e-02 1.273535788059234619e-01
2.141186408698558807e-02 -9.097188711166381836e-02 -3.318002074956893921e-02 -1.045143790543079376e-02 6.130203604698181152e-02 1.445387899875640869e-01 -1.752252690494060516e-02 -3.863179311156272888e-02 5.103777721524238586e-02 1.252509001642465591e-02
-3.717669518664479256e-03 1.623704582452774048e-01 -1.512056142091751099e-01 -1.077059432864189148e-01 1.552818566560745239e-01 -9.562845528125762939e-02 -6.948339194059371948e-02 -1.029302105307579041e-01 -9.423132240772247314e-02 4.411964118480682373e-02
6.430384516716003418e-02 1.721781492233276367e-01 3.427142277359962463e-02 -5.669979751110076904e-02 -2.294901292771100998e-03 -3.703435510396957397e-02 1.606249958276748657e-01 -6.864767521619796753e-02 -1.906680129468441010e-02 -1.360287796705961227e-02
-4.798733815550804138e-02 4.005360975861549377e-02 1.768097728490829468e-01 -1.262455619871616364e-02 1.540011167526245117e-01 -1.565692275762557983e-01 -7.861944846808910370e-03 1.793191069737076759e-03 -1.042125597596168518e-01 -1.405247766524553299e-02
4.025979340076446533e-02 -7.753148674964904785e-02 1.208446174860000610e-01 -5.309584364295005798e-02 2.802909724414348602e-02 -5.282671377062797546e-02 1.615013778209686279e-01 -1.230522468686103821e-01 8.804728835821151733e-02 7.000560313463211060e-02
7.117964327335357666e-02 6.152665987610816956e-02 -6.006968393921852112e-02 1.099459081888198853e-01 -1.472649425268173218e-01 -8.107817918062210083e-02 -1.007858887314796448e-01 2.213738299906253815e-02 -5.728261545300483704e-02 -9.047593176364898682e-02
-4.351491108536720276e-02 -1.455929428339004517e-01 2.727249078452587128e-02 6.277491897344589233e-02 -3.904429450631141663e-02 -1.015680730342864990e-01 -8.054614812135696411e-02 1.944574415683746338e-01 -7.566834241151809692e-02 7.002341002225875854e-02
3.326957672834396362e-02 -3.725791350007057190e-02 9.729139506816864014e-02 -6.096945330500602722e-02 -1.390231847763061523e-01 -2.502915263175964355e-02 7.218042016029357910e-02 -1.249710330739617348e-03 -1.219253093004226685e-01 1.297567486763000488e-01
-1.829607337713241577e-01 5.596226081252098083e-02 4.561326280236244202e-02 5.200816318392753601e-03 -1.287552267313003540e-01 1.396797150373458862e-01 1.422539353370666504e-01 -1.499917940236628056e-03 5.687633529305458069e-02 1.508676074445247650e-02
-7.912506163120269775e-02 9.420108050107955933e-02 -1.527393758296966553e-01 1.287897378206253052e-01 -3.588270768523216248e-02 1.355751883238554001e-02 -8.412487804889678955e-02 1.648451015353202820e-02 -1.001207754015922546e-01 6.448228657245635986e-02
4.968532547354698181e-02 -8.339399099349975586e-02 -4.654058814048767090e-02 2.194579318165779114e-02 -2.399683557450771332e-02 1.885690242052078247e-01 -5.569127947092056274e-02 3.538976982235908508e-02 -2.427293919026851654e-02 -5.898684263229370117e-02
9.270546585321426392e-02 1.599682569503784180e-01 -4.416609182953834534e-02 -3.458363562822341919e-02 -5.729071050882339478e-02 7.282184809446334839e-02 9.841751307249069214e-02 7.093491405248641968e-02 4.258910939097404480e-02 -1.056934222579002380e-01
-5.515909940004348755e-02 -3.887513279914855957e-02 -1.108331084251403809e-01 -1.639378815889358521e-02 1.013899520039558411e-01 5.377298966050148010e-02 1.019507497549057007e-01 1.366735398769378662e-01 8.605746924877166748e-02 4.965045303106307983e-02
-1.473601460456848145e-01 7.512532919645309448e-02 9.584470093250274658e-02 8.782890439033508301e-02 4.295077547430992126e-02 -1.394079253077507019e-02 7.856594771146774292e-02 3.248474746942520142e-02 1.430156361311674118e-02 9.749950841069221497e-03
3.990126773715019226e-03 -1.878258883953094482e-01 6.888598203659057617e-02 2.161669917404651642e-02 -7.361593097448348999e-02 -7.739370316267013550e-02 -4.992419853806495667e-02 1.191047653555870056e-01 6.594703346490859985e-02 3.736932575702667236e-02
-8.114755153656005859e-02 1.673942953348159790e-01 -3.580133616924285889e-02 -1.430700570344924927e-01 -3.514381498098373413e-02 -7.237346470355987549e-02 1.136026829481124878e-01 1.346786171197891235e-01 1.917894184589385986e-02 -1.641348898410797119e-01
-4.032176360487937927e-02 3.755917027592658997e-02 3.963842242956161499e-02 1.006262674927711487e-01 -6.353865377604961395e-03 -3.330596536397933960e-02 1.045981347560882568e-01 3.924375772476196289e-02 1.347896158695220947e-01 3.994603082537651062e-02
2.651572413742542267e-02 -6.060830503702163696e-02 1.191907445900142193e-03 6.649707909673452377e-03 1.128698047250509262e-02 -8.403977751731872559e-02 5.456338822841644287e-02 1.021374389529228210e-01 -1.646154373884201050e-01 3.393537923693656921e-02
8.552768081426620483e-02 8.895392715930938721e-02 1.050582677125930786e-01 -3.340702876448631287e-02 -3.017732501029968262e-02 1.388846337795257568e-01 6.646641343832015991e-02 1.212644353508949280e-01 2.141183800995349884e-02 -8.552139252424240112e-02
1.592607982456684113e-02 -1.648360937833786011e-01 1.151980981230735779e-01 -2.130530588328838348e-02 -6.809759140014648438e-02 -1.254958957433700562e-01 6.586571782827377319e-02 -1.404776424169540405e-02 2.839079685509204865e-02 -1.597265601158142090e-01
-2.579256659373641014e-03 8.506412617862224579e-03 -3.308518603444099426e-02 6.461007148027420044e-02 -1.139654312282800674e-02 -1.940296143293380737e-01 -3.503894060850143433e-02 9.581553936004638672e-02 1.104655861854553223e-01 -4.513704776763916016e-02
-4.717997089028358459e-02 1.770718693733215332e-01 -1.509915944188833237e-02 -7.355721294879913330e-02 -1.316119134426116943e-01 -1.757527887821197510e-01 -1.066767573356628418e-01 9.323329478502273560e-02 -1.505727600306272507e-02 -4.930940922349691391e-03
-4.807445779442787170e-02 -1.136281862854957581e-01 7.468729745596647263e-03 2.593176439404487610e-02 -1.690051145851612091e-02 -5.778816714882850647e-02 -5.343681573867797852e-02 -3.199702128767967224e-02 -9.185310453176498413e-03 -3.103062324225902557e-02
2.541925385594367981e-02 1.584560982882976532e-02 1.093033701181411743e-01 -5.990610271692276001e-02 2.737427689135074615e-02 -2.251053601503372192e-02 7.739473879337310791e-02 1.019609123468399048e-01 2.339617721736431122e-02 1.293540745973587036e-01
1.724481135606765747e-01 -1.320058554410934448e-01 5.639832094311714172e-02 -7.486238330602645874e-02 1.163828279823064804e-02 1.599670797586441040e-01 -7.767529785633087158e-02 1.657103300094604492e-01 -5.249143019318580627e-02 4.709719866514205933e-02
-6.063623726367950439e-02 1.760725490748882294e-02 1.286506056785583496e-01 -1.593110500834882259e-03 -6.436601281166076660e-02 -2.361451648175716400e-02 1.797913610935211182e-01 -1.667728722095489502e-01 1.177320629358291626e-02 -5.124734714627265930e-02
2.855122834444046021e-02 1.385981887578964233e-01 -3.489510715007781982e-02 1.536054462194442749e-01 1.004196703433990479e-02 8.245473355054855347e-02 6.494288146495819092e-02 -1.634972169995307922e-02 5.029557738453149796e-03 -2.604426816105842590e-02
1.200200337916612625e-02 -4.979711771011352539e-02 3.455751016736030579e-02 1.841212064027786255e-01 1.272540539503097534e-01 7.745500653982162476e-02 -5.391700938344001770e-02 4.653255641460418701e-02 -1.487808972597122192e-01 -1.934373751282691956e-02
1.150731071829795837e-01 -1.502470374107360840e-01 -6.859288364648818970e-02 2.387007884681224823e-02 -3.032239340245723724e-02 6.162286549806594849e-02 9.616693854331970215e-02 1.054255515336990356e-01 8.904747664928436279e-02 1.282295435667037964e-01
6.916629523038864136e-02 2.001125738024711609e-02 1.652301251888275146e-01 -6.150413304567337036e-02 -4.742546379566192627e-02 -1.967327892780303955e-01 1.203203499317169189e-01 1.603852063417434692e-01 3.348271921277046204e-02 -7.458374649286270142e-02
-6.624282151460647583e-02 6.277492642402648926e-02 -8.627030998468399048e-02 -3.902894631028175354e-02 -7.679774612188339233e-02 1.065409779548645020e-01 5.365261062979698181e-02 3.651082888245582581e-02 1.518853455781936646e-01 4.525161162018775940e-02
-1.043684594333171844e-02 -3.991860151290893555e-02 -1.176115348935127258e-01 1.321749240159988403e-01 1.189570724964141846e-01 9.989162534475326538e-02 1.859354376792907715e-01 4.608552902936935425e-03 -2.229641191661357880e-02 3.361957147717475891e-02
4.841017350554466248e-02 1.864005178213119507e-01 -1.595902629196643829e-02 -1.150059862993657589e-03 1.086471453309059143e-01 -1.317388266324996948e-01 -1.661989241838455200e-01 5.155278369784355164e-02 7.806226145476102829e-03 -1.010465025901794434e-01
6.840570271015167236e-02 -8.136875182390213013e-02 7.950678467750549316e-02 -3.695804625749588013e-02 -6.320745497941970825e-02 3.710435703396797180e-02 -1.542758196592330933e-01 -7.353661209344863892e-02 8.027169108390808105e-02 6.333824992179870605e-02
4.773595929145812988e-02 -2.187153697013854980e-02 3.723809868097305298e-02 -6.629010289907455444e-02 -1.234326437115669250e-01 -9.188959747552871704e-02 8.991947770118713379e-02 -1.745151281356811523e-01 -2.662700042128562927e-02 4.361779987812042236e-02
1.436392664909362793e-01 -9.890183806419372559e-02 7.068234682083129883e-02 1.086965203285217285e-02 -8.087495714426040649e-02 -1.199278701096773148e-02 1.094571352005004883e-01 -6.416729092597961426e-02 -3.321540728211402893e-02 -7.681371271610260010e-02
2.427536249160766602e-02 -4.718161746859550476e-02 4.326433688402175903e-02 6.542714312672615051e-03 6.479225307703018188e-02 1.833590865135192871e-01 1.847354136407375336e-02 -2.787744253873825073e-02 4.530726000666618347e-02 1.026516687124967575e-02
9.028399735689163208e-02 7.178163528442382812e-02 -8.793930709362030029e-02 1.297840569168329239e-02 3.925555571913719177e-02 1.776868402957916260e-01 -1.662298738956451416e-01 6.957733631134033203e-02 4.051509499549865723e-02 4.878130927681922913e-02
3.595794364809989929e-02 1.341061741113662720e-01 -3.219106420874595642e-02 -2.445911755785346031e-03 -7.345008850097656250e-02 2.703470923006534576e-02 1.645005792379379272e-01 -2.524849213659763336e-02 5.551183596253395081e-02 2.656954713165760040e-02
-7.442113012075424194e-02 8.811271935701370239e-02 -5.744696781039237976e-02 1.448472146876156330e-03 2.035860531032085419e-02 -1.358719915151596069e-01 1.156221404671669006e-01 3.936100378632545471e-02 -1.219495106488466263e-02 -5.479167401790618896e-02
-1.755715459585189819e-01 -3.680661693215370178e-02 1.291312575340270996e-01 -5.724627152085304260e-02 -2.303737215697765350e-02 1.047255620360374451e-01 -1.692332327365875244e-01 -3.268342092633247375e-02 1.371713727712631226e-01 6.527262926101684570e-02
1.610217094421386719e-01 5.424778908491134644e-03 -8.749367296695709229e-02 -9.986089915037155151e-02 1.461292803287506104e-02 2.558749169111251831e-02 -1.507757753133773804e-01 -6.401291489601135254e-02 -1.458760257810354233e-02 -8.509518951177597046e-02
7.604284677654504776e-03 1.555666327476501465e-01 1.530487537384033203e-01 2.234524488449096680e-02 -4.515857994556427002e-02 -1.551844924688339233e-01 -8.592376857995986938e-02 -6.719081848859786987e-02 5.108260363340377808e-02 1.866910257376730442e-03
8.563189953565597534e-02 -2.693494036793708801e-02 7.788413017988204956e-02 -1.723895072937011719e-01 3.375699743628501892e-02 1.110704168677330017e-01 2.991766482591629028e-02 -7.032313942909240723e-02 -8.129773288965225220e-02 5.621307343244552612e-02
1.077883094549179077e-01 -3.243386046960949898e-03 1.874467171728610992e-02 -2.611330524086952209e-02 -1.057558730244636536e-01 5.995723232626914978e-02 -1.052777618169784546e-01 -7.787100225687026978e-02 -1.119618043303489685e-01 3.853342309594154358e-02
-8.345704525709152222e-02 -4.205828160047531128e-02 -3.818662464618682861e-02 -8.100987412035465240e-03 -6.923896726220846176e-03 5.766231566667556763e-02 -7.087858766317367554e-02 1.234456598758697510e-01 1.624447479844093323e-02 -4.028316959738731384e-02
-5.129875615239143372e-03 1.190693154931068420e-01 1.434071213006973267e-01 -1.394544839859008789e-01 -8.697769790887832642e-02 3.752299025654792786e-02 -6.795772165060043335e-02 2.491480670869350433e-03 -2.821187302470207214e-02 -1.156779378652572632e-01
-9.312332421541213989e-02 1.334977298974990845e-01 -6.201677955687046051e-03 -6.509199738502502441e-02 -2.233400568366050720e-02 4.477371647953987122e-02 -1.305307596921920776e-01 1.206779330968856812e-01 4.368610680103302002e-03 4.522879421710968018e-02
3.256400302052497864e-02 -1.285916287451982498e-02 5.819432437419891357e-02 -5.093809589743614197e-02 1.451589614152908325e-01 9.901266545057296753e-02 4.860861971974372864e-02 -2.454461716115474701e-02 -1.868961155414581299e-01 -8.198682963848114014e-02
1.463902443647384644e-01 2.308917930349707603e-03 -1.521821916103363037e-01 7.220391929149627686e-02 6.672474741935729980e-02 -6.277289986610412598e-02 -1.717125475406646729e-01 -8.056685328483581543e-02 4.786405712366104126e-02 -5.046099796891212463e-02
-4.160856828093528748e-02 1.835402697324752808e-01 -3.153176605701446533e-02 2.125917933881282806e-02 1.110694333910942078e-01 -1.087652891874313354e-01 5.856275092810392380e-03 1.191835403442382812e-01 2.623116597533226013e-02 1.309570670127868652e-01
1.388932019472122192e-02 3.958323597908020020e-02 -3.308881446719169617e-02 -7.965419441461563110e-02 -9.687510319054126740e-03 2.420734800398349762e-02 -2.180273411795496941e-03 -1.779161244630813599e-01 -9.374135732650756836e-02 -5.195679143071174622e-02
-1.169699430465698242e-01 -3.470242395997047424e-02 -2.696555852890014648e-02 -1.222277209162712097e-01 -1.791017204523086548e-01 -1.642811298370361328e-01 -4.150094836950302124e-02 1.929398067295551300e-02 1.226193904876708984e-01 -1.160778999328613281e-01
-7.872257381677627563e-02 -2.613966725766658783e-02 7.027593255043029785e-02 -3.115908987820148468e-02 9.448789060115814209e-02 3.275046870112419128e-02 9.461764246225357056e-02 -1.129943206906318665e-01 1.088509559631347656e-01 -8.712110668420791626e-02
1.720657497644424438e-01 -5.234926566481590271e-02 8.999348431825637817e-02 1.327254921197891235e-01 -6.831856817007064819e-02 -1.285926848649978638e-01 3.078576177358627319e-02 -1.217221319675445557e-01 -2.578825689852237701e-02 7.471601665019989014e-02
-1.002805009484291077e-01 6.392350047826766968e-02 -5.349639430642127991e-02 1.952925696969032288e-02 -5.760240182280540466e-02 -8.425241708755493164e-02 1.084047779440879822e-01 5.003439262509346008e-02 1.482982933521270752e-01 6.255120038986206055e-02
1.355778658762574196e-03 5.011492595076560974e-02 5.790676176548004150e-02 2.239766530692577362e-02 -6.043674424290657043e-02 6.975903362035751343e-02 -2.601671963930130005e-02 7.972557097673416138e-02 8.110349625349044800e-02 -7.539039850234985352e-02
-2.135968022048473358e-02 8.037462085485458374e-02 8.992194780148565769e-04 -7.655823975801467896e-02 -2.211003564298152924e-02 6.904970109462738037e-02 -7.634184788912534714e-03 -1.264365296810865402e-02 1.501746475696563721e-01 6.216042488813400269e-02
-3.279401734471321106e-02 -1.483324021100997925e-01 4.644556716084480286e-02 1.523406356573104858e-01 6.859679520130157471e-02 1.111246198415756226e-01 1.223058700561523438e-01 -1.123005971312522888e-01 4.724704846739768982e-02 -7.182743400335311890e-02
3.261338919401168823e-02 1.055407747626304626e-01 4.110609367489814758e-02 -1.417735069990158081e-01 -8.064044266939163208e-02 -8.080369234085083008e-02 -4.614467918872833252e-02 2.200590819120407104e-02 -7.826492935419082642e-02 -8.300078660249710083e-02
-1.650045067071914673e-01 4.050713777542114258e-02 -3.847489878535270691e-02 3.681964427232742310e-02 -5.116464197635650635e-02 -1.818834058940410614e-02 -1.062276810407638550e-01 -1.400648057460784912e-01 7.308462262153625488e-02 -1.074643880128860474e-01
-1.809265911579132080e-01 6.354440003633499146e-02 -3.690262138843536377e-02 -3.845555707812309265e-02 -1.684068888425827026e-01 -6.388323754072189331e-02 6.443815678358078003e-02 1.408091932535171509e-01 1.507404074072837830e-02 9.481363743543624878e-02
4.015051946043968201e-02 1.293592602014541626e-01 -1.213139295578002930e-01 1.129946932196617126e-01 1.235577315092086792e-01 -2.508642524480819702e-02 4.394686967134475708e-02 -1.281164139509201050e-01 -1.139454916119575500e-01 1.128942817449569702e-01
-6.205511838197708130e-02 9.820012748241424561e-02 -1.114665046334266663e-01 -6.066698208451271057e-02 7.031171768903732300e-02 5.737378448247909546e-02 2.360538206994533539e-02 1.693212389945983887e-01 1.563334763050079346e-01 -8.098173886537551880e-02
8.648842573165893555e-03 9.883646667003631592e-02 -5.002717673778533936e-02 -4.746745526790618896e-02 2.270661108195781708e-02 -4.361860826611518860e-02 -7.300721853971481323e-02 7.056006044149398804e-02 -1.320326607674360275e-02 3.156512603163719177e-02
-1.696287542581558228e-01 1.000330746173858643e-01 -4.505692049860954285e-02 -7.607685774564743042e-02 2.941683866083621979e-02 8.311588317155838013e-03 -1.959072351455688477e-01 -3.223431482911109924e-02 3.776058554649353027e-02 3.149603679776191711e-02
6.715875864028930664e-02 -1.902088522911071777e-02 -4.136648774147033691e-02 8.699352294206619263e-02 -2.810915745794773102e-02 1.191238220781087875e-02 1.510533094406127930e-01 1.551031917333602905e-01 1.715843677520751953e-01 1.179552450776100159e-01
3.622981533408164978e-02 -5.442162603139877319e-02 1.311052404344081879e-02 7.022264599800109863e-02 6.274790316820144653e-02 3.251245245337486267e-02 -4.160407697781920433e-04 8.627507835626602173e-02 -9.283824265003204346e-02 4.154210165143013000e-02
3.291366621851921082e-02 -1.117934212088584900e-01 -3.491731360554695129e-02 -1.461578812450170517e-02 5.410518124699592590e-02 -1.024734154343605042e-01 -5.603305529803037643e-03 -1.563268899917602539e-01 -1.033693458884954453e-02 1.166794449090957642e-01
-1.761027239263057709e-02 6.404641270637512207e-02 -4.867633432149887085e-02 -6.607337296009063721e-02 -3.433141112327575684e-02 -5.471070483326911926e-02 -1.040934324264526367e-01 4.546562582254409790e-02 -7.724748551845550537e-02 -1.285560727119445801e-01
-5.667599290609359741e-02 3.848645463585853577e-02 8.882490918040275574e-03 1.249491795897483826e-01 4.506015405058860779e-02 -9.842331707477569580e-02 -1.815504953265190125e-02 -1.146431490778923035e-01 -3.418010473251342773e-02 -1.441696584224700928e-01
3.479810431599617004e-02 1.468333974480628967e-02 1.619709283113479614e-01 -1.139463335275650024e-01 7.902283221483230591e-03 1.654391549527645111e-02 -7.011403143405914307e-02 1.543093621730804443e-01 -1.654750406742095947e-01 -6.491018831729888916e-02
-4.966047033667564392e-02 -7.381403353065252304e-03 -4.327849298715591431e-02 5.764756724238395691e-02 -5.332545563578605652e-02 8.523117005825042725e-02 3.078145720064640045e-02 8.143339306116104126e-02 -8.285608887672424316e-02 4.531727358698844910e-02
-1.706887334585189819e-01 1.168382093310356140e-01 6.116453185677528381e-02 -1.464048624038696289e-01 -1.047586873173713684e-01 -7.844839245080947876e-02 -1.591597944498062134e-01 1.222768127918243408e-01 -9.326601400971412659e-03 8.487951755523681641e-02
8.607729524374008179e-02 4.539312049746513367e-02 2.537202835083007812e-02 5.018286779522895813e-02 -1.568618714809417725e-01 1.020537838339805603e-01 -4.122429713606834412e-02 -8.769333362579345703e-02 -4.385856539011001587e-02 -6.206384301185607910e-02
5.431446060538291931e-02 -1.768371835350990295e-02 1.446069777011871338e-01 -9.645779430866241455e-02 9.660696983337402344e-02 6.309532374143600464e-02 3.620614856481552124e-02 -7.325389981269836426e-02 1.365677714347839355e-01 -1.595177352428436279e-01
1.342187076807022095e-01 1.434464454650878906e-01 1.762162148952484131e-02 -4.355934262275695801e-02 -1.347664892673492432e-01 1.755999960005283356e-02 -1.677543967962265015e-01 5.105373263359069824e-02 1.694579795002937317e-02 -1.576195657253265381e-02
1.445231735706329346e-01 1.066066995263099670e-01 -1.481320858001708984e-01 2.119897864758968353e-02 -2.129078097641468048e-02 4.086290672421455383e-02 -8.021674305200576782e-02 8.426558971405029297e-02 1.003188043832778931e-01 -1.624156385660171509e-01
-7.352127227932214737e-03 1.030322983860969543e-01 5.330862104892730713e-02 -1.189211606979370117e-01 -1.226743534207344055e-01 7.970551401376724243e-02 -3.725243732333183289e-02 1.988074276596307755e-03 -1.687778830528259277e-01 -1.399418152868747711e-02
9.518650174140930176e-02 -9.809152781963348389e-02 2.017222344875335693e-02 -3.365415707230567932e-02 -7.360189221799373627e-03 -3.071232512593269348e-02 9.961387515068054199e-02 -1.477266699075698853e-01 -1.747409813106060028e-02 -6.348424404859542847e-02
-1.636297404766082764e-01 5.739013850688934326e-02 5.952840670943260193e-02 9.628377854824066162e-02 6.750277243554592133e-03 -1.265988349914550781e-01 5.953837535344064236e-04 -2.958440594375133514e-02 -7.231812179088592529e-02 1.400067359209060669e-01
1.048886328935623169e-01 -5.132624879479408264e-02 6.066768988966941833e-02 -4.798486456274986267e-02 -3.258294984698295593e-02 1.005263999104499817e-01 7.697512954473495483e-02 -1.279843002557754517e-01 1.278612948954105377e-02 1.326604336500167847e-01
-4.612578451633453369e-02 1.089149042963981628e-01 9.133127331733703613e-02 -5.904676020145416260e-02 6.266548484563827515e-02 6.600527465343475342e-02 4.620750620961189270e-02 1.503078192472457886e-01 1.280873566865921021e-01 -1.478156745433807373e-01
5.334296729415655136e-03 -7.724339514970779419e-02 1.165292114019393921e-01 -3.792528808116912842e-02 -1.218120008707046509e-01 -3.152302652597427368e-02 3.482240438461303711e-02 7.775820046663284302e-02 1.239264681935310364e-01 6.101299822330474854e-02
7.573878020048141479e-02 -1.366795152425765991e-01 -6.351917982101440430e-02 6.110581755638122559e-02 -7.828966528177261353e-02 1.078501567244529724e-01 5.394550412893295288e-02 -7.504904270172119141e-02 3.545653074979782104e-02 1.114143133163452148e-01
-1.448977589607238770e-01 -5.842324346303939819e-02 2.602401375770568848e-02 -1.276387125253677368e-01 5.355715285986661911e-03 -5.607131123542785645e-02 5.412572249770164490e-02 6.278908997774124146e-02 -1.578095182776451111e-02 -7.714728824794292450e-03
1.311290711164474487e-01 1.916355220600962639e-03 6.045405939221382141e-02 3.101921826601028442e-02 -2.262310311198234558e-02 3.556933626532554626e-02 -1.783206164836883545e-01 2.611062675714492798e-02 3.196645155549049377e-02 1.143171563744544983e-01
-8.117097616195678711e-02 3.449142351746559143e-02 -1.506101340055465698e-01 5.082945898175239563e-02 -9.815321862697601318e-02 6.595960259437561035e-02 3.625868260860443115e-02 8.824536949396133423e-02 -1.061184331774711609e-01 1.073717549443244934e-01
7.759087532758712769e-02 -1.875353008508682251e-01 -3.583960607647895813e-02 -2.543986961245536804e-02 -2.471924945712089539e-02 -2.588008344173431396e-02 -6.336225569248199463e-02 -1.112671047449111938e-01 -9.377862513065338135e-02 -2.665549330413341522e-02
7.297884672880172729e-02 2.718730457127094269e-02 6.098551303148269653e-02 3.650045394897460938e-02 -7.154692709445953369e-02 2.184437587857246399e-02 -3.548369556665420532e-02 1.373753100633621216e-01 7.941571623086929321e-02 -1.087405532598495483e-01
3.788881748914718628e-02 -4.860402643680572510e-02 8.742863684892654419e-02 -8.304821327328681946e-03 -1.214169617742300034e-02 8.259507268667221069e-02 1.816568970680236816e-01 8.763191103935241699e-02 4.030851647257804871e-02 9.353350847959518433e-02
-1.557641625404357910e-01 -1.355687379837036133e-01 -9.887359291315078735e-02 -1.300836354494094849e-01 -7.756295055150985718e-02 1.758764982223510742e-01 8.085196465253829956e-02 -7.920694351196289062e-02 1.631682813167572021e-01 1.718603260815143585e-02
3.220063820481300354e-02 1.461419612169265747e-01 1.482105851173400879e-01 -2.748360857367515564e-02 1.433734446763992310e-01 -7.466097176074981689e-02 7.427250593900680542e-02 1.415426842868328094e-02 2.014353871345520020e-02 1.931123435497283936e-01
-7.101128250360488892e-02 -1.642049849033355713e-02 3.020383603870868683e-02 2.564881183207035065e-02 9.173901379108428955e-02 5.956419184803962708e-02 5.993934348225593567e-03 -6.081263348460197449e-02 -1.231505349278450012e-02 4.636297747492790222e-02
-7.198179513216018677e-02 -1.316120773553848267e-01 1.215817108750343323e-01 -5.855225399136543274e-02 3.635171335190534592e-03 1.417965888977050781e-01 -5.355312302708625793e-02 -5.631153285503387451e-02 -7.902613282203674316e-02 3.252639621496200562e-02
9.182393550872802734e-02 5.386843904852867126e-02 6.232217326760292053e-02 9.632216393947601318e-02 -6.727394647896289825e-03 1.334405392408370972e-01 -8.466392010450363159e-02 -7.303898781538009644e-02 8.705667406320571899e-02 -7.694648206233978271e-02
-2.574642002582550049e-02 1.820777207612991333e-01 -1.047708392143249512e-01 -7.474339753389358521e-02 1.713967137038707733e-02 -1.912868320941925049e-01 2.864860557019710541e-02 4.077188298106193542e-02 5.055674165487289429e-02 -2.951624628622084856e-04
6.385374814271926880e-02 1.446525156497955322e-01 2.997669577598571777e-02 1.005123369395732880e-02 3.479929268360137939e-02 5.324301868677139282e-02 4.959899466484785080e-03 6.413206458091735840e-03 -7.784228306263685226e-03 8.957134932279586792e-02
-1.031484082341194153e-01 -1.262423992156982422e-01 -3.292433917522430420e-02 -4.978401586413383484e-02 -1.359458081424236298e-02 5.131503194570541382e-02 6.620379537343978882e-02 7.069056481122970581e-02 2.210304141044616699e-02 -3.189970180392265320e-02
7.345543056726455688e-02 4.608738049864768982e-02 5.464439839124679565e-02 -9.883058071136474609e-02 -1.289988495409488678e-02 1.885094121098518372e-02 -2.929690852761268616e-02 9.001217037439346313e-02 2.811256609857082367e-02 1.475919783115386963e-02
1.638016104698181152e-02 -1.478370428085327148e-01 -2.597300708293914795e-02 1.010515093803405762e-01 -6.592015270143747330e-03 8.673822507262229919e-03 -1.433777809143066406e-01 -4.186893627047538757e-02 -4.763276129961013794e-02 5.403616651892662048e-02
7.558680325746536255e-02 -1.416976377367973328e-02 5.784815177321434021e-02 1.509544998407363892e-02 1.533150076866149902e-01 -3.324269503355026245e-02 -1.034545451402664185e-01 -6.632390432059764862e-03 -1.801849342882633209e-02 -4.370807856321334839e-02
-2.805326320230960846e-02 -1.451347023248672485e-01 4.226027987897396088e-03 -4.939300566911697388e-02 -8.600204437971115112e-02 1.236108038574457169e-02 7.151298224925994873e-02 -1.124669089913368225e-01 3.169573144987225533e-03 -8.955167979001998901e-02
1.221442818641662598e-01 1.879791170358657837e-01 1.332214772701263428e-01 -1.413478702306747437e-01 -3.846344724297523499e-02 8.300530165433883667e-02 4.009401891380548477e-03 4.273645579814910889e-02 -2.286610193550586700e-02 -8.743869513273239136e-02
3.826771676540374756e-02 -7.862657308578491211e-02 4.375210404396057129e-02 -6.134809926152229309e-02 -1.782715469598770142e-01 6.302514672279357910e-02 -5.226954072713851929e-02 1.695234626531600952e-01 -1.738279126584529877e-02 -1.513190418481826782e-01
-4.901969805359840393e-02 1.147435903549194336e-01 -3.869391232728958130e-02 1.774960905313491821e-01 -1.356742978096008301e-01 -6.155423447489738464e-02 -4.419260099530220032e-02 7.947520166635513306e-02 -2.522790804505348206e-02 3.339870600029826164e-03
1.366009861230850220e-01 -9.135716408491134644e-02 -7.577296346426010132e-02 -8.913627825677394867e-03 -3.828459233045578003e-02 5.752667039632797241e-02 -7.077804952859878540e-02 -2.173471078276634216e-02 2.320370264351367950e-02 -1.582597568631172180e-02
2.485445328056812286e-02 -1.707765907049179077e-01 -1.442146603949368000e-03 8.254504948854446411e-02 1.496808379888534546e-01 -2.745622582733631134e-02 -7.700469344854354858e-02 7.634866237640380859e-02 -6.220838055014610291e-03 -8.920051902532577515e-02
-1.150236427783966064e-01 5.571795254945755005e-02 5.056937225162982941e-03 1.821753084659576416e-01 7.782236486673355103e-02 2.020770460367202759e-01 -1.395987719297409058e-01 4.200794920325279236e-02 -9.533100575208663940e-02 -4.157195240259170532e-02
3.006459772586822510e-02 4.896166920661926270e-02 -4.360981658101081848e-02 3.926002606749534607e-02 -6.884392350912094116e-02 8.728316426277160645e-02 -2.766448259353637695e-02 6.038171797990798950e-02 2.524049393832683563e-02 -5.475804209709167480e-02
8.980034291744232178e-02 1.336801424622535706e-02 1.934196054935455322e-02 4.870003834366798401e-02 5.774089694023132324e-02 -2.319813333451747894e-02 1.452295575290918350e-02 4.572629928588867188e-02 -1.270143873989582062e-02 -9.812336415052413940e-02
-7.773161050863564014e-04 7.880046963691711426e-02 1.004546359181404114e-01 -4.428417608141899109e-02 -1.307844966650009155e-01 -2.474886830896139145e-03 -1.625001989305019379e-02 -5.714731756597757339e-03 1.332347001880407333e-02 -7.334368675947189331e-02
-6.830953061580657959e-02 1.202400177717208862e-01 3.384438529610633850e-02 1.269930750131607056e-01 -8.410626649856567383e-02 -5.872354283928871155e-02 7.039268314838409424e-02 -4.562987759709358215e-02 -1.053748950362205505e-01 -1.956310681998729706e-02
-1.369176357984542847e-01 1.263259351253509521e-01 4.175829887390136719e-02 3.771852701902389526e-02 1.502314358949661255e-01 -8.611040562391281128e-02 -7.537950575351715088e-02 1.441046297550201416e-01 6.101986858993768692e-03 3.228144021704792976e-03
-2.118455804884433746e-02 -1.725446134805679321e-01 1.596198827028274536e-01 3.828586265444755554e-02 -6.289806962013244629e-02 -9.414255619049072266e-02 -2.170797204598784447e-03 -1.465174555778503418e-01 2.002629451453685760e-02 5.341649428009986877e-02
-9.237693250179290771e-02 -6.004948168992996216e-02 5.052583664655685425e-02 5.917759984731674194e-02 2.610286325216293335e-02 1.071927472949028015e-01 6.833995878696441650e-02 7.378648966550827026e-02 -4.899583384394645691e-02 4.652960225939750671e-02
7.937590032815933228e-02 -1.577216386795043945e-01 1.093600541353225708e-01 -5.416696146130561829e-02 -9.708984941244125366e-02 7.621603459119796753e-02 -1.238307207822799683e-01 -8.514579385519027710e-02 1.255160868167877197e-01 -6.323859095573425293e-02
3.930337354540824890e-02 -2.291165664792060852e-02 -7.339639961719512939e-02 -8.301103115081787109e-02 -4.968566447496414185e-02 -1.197683289647102356e-01 -5.208645947277545929e-03 -1.244259402155876160e-01 -7.798541337251663208e-02 -1.545382887125015259e-01
1.037785261869430542e-01 8.121021091938018799e-02 1.445327848196029663e-01 1.174403540790081024e-02 -5.267847329378128052e-02 9.498701244592666626e-02 -5.097479745745658875e-02 -8.597585372626781464e-03 1.569631099700927734e-01 1.172813698649406433e-01
-1.733191460371017456e-01 -9.344250708818435669e-02 4.836997389793395996e-02 -1.325738150626420975e-02 1.465549878776073456e-02 4.618378356099128723e-02 -7.553069293498992920e-02 1.447052359580993652e-01 -8.876426517963409424e-02 8.273857645690441132e-03
-1.005419939756393433e-01 2.831922145560383797e-03 8.923303335905075073e-02 1.999027468264102936e-02 4.263705015182495117e-02 -2.832376398146152496e-02 6.890872120857238770e-02 6.575391441583633423e-02 1.310381740331649780e-01 5.704554542899131775e-02
9.749920666217803955e-02 -8.710563927888870239e-02 1.424207091331481934e-01 -1.511925645172595978e-02 9.139043092727661133e-02 -1.482508629560470581e-01 1.380068957805633545e-01 1.042534559965133667e-01 4.532051086425781250e-02 -1.259280592203140259e-01
7.295276224613189697e-02 4.572942480444908142e-02 -4.437125101685523987e-02 1.816750876605510712e-02 -1.087119728326797485e-01 -5.161047354340553284e-02 8.214898407459259033e-02 4.629877954721450806e-02 1.311169862747192383e-01 8.523526601493358612e-03
2.935205586254596710e-03 -1.258574426174163818e-01 -4.498997330665588379e-02 -1.030803248286247253e-01 -7.536040246486663818e-02 2.451542019844055176e-02 -4.702310264110565186e-02 1.452513784170150757e-01 -9.796775132417678833e-02 1.387451142072677612e-01
-8.334308862686157227e-03 -1.452402174472808838e-01 -5.690361931920051575e-02 -5.386135308071970940e-04 -5.138956755399703979e-02 1.865569800138473511e-01 7.667075842618942261e-03 1.552855521440505981e-01 -7.495476398617029190e-03 7.587299495935440063e-02
1.179343312978744507e-01 8.109673112630844116e-02 -1.212793961167335510e-01 -9.304561465978622437e-02 -5.899053812026977539e-02 7.788293063640594482e-02 2.686097286641597748e-02 -1.818144693970680237e-02 -1.140954196453094482e-01 4.944730550050735474e-02
1.091259624809026718e-02 -1.244871616363525391e-01 6.643090397119522095e-02 -5.242364108562469482e-02 -4.410400986671447754e-02 -4.287851974368095398e-02 -2.126956358551979065e-02 1.505898237228393555e-01 -4.324078187346458435e-02 -1.050576195120811462e-01
2.343577705323696136e-02 -6.176898255944252014e-02 1.309058628976345062e-02 1.665985397994518280e-02 -1.072271615266799927e-01 7.738346606492996216e-02 1.702160984277725220e-01 -4.215131700038909912e-02 -7.810407876968383789e-02 8.936659246683120728e-02
-9.470510482788085938e-02 -4.718576371669769287e-02 9.299179166555404663e-02 8.602322638034820557e-02 -3.190669044852256775e-02 -9.720265120267868042e-02 3.902005031704902649e-02 -3.898251056671142578e-02 3.691135346889495850e-02 -1.346793621778488159e-01
2.180844545364379883e-03 -1.239334866404533386e-01 2.990049682557582855e-02 -2.488932013511657715e-02 1.006583049893379211e-01 -1.173245906829833984e-01 1.062462572008371353e-02 5.516388267278671265e-02 1.028932034969329834e-01 4.373739473521709442e-03
3.958365693688392639e-02 -1.291820779442787170e-02 6.904497742652893066e-02 -1.238527297973632812e-01 4.833441227674484253e-02 -1.118842288851737976e-01 -9.604673087596893311e-02 6.448583304882049561e-02 8.987080305814743042e-02 1.089399680495262146e-02
7.613659650087356567e-02 1.152620762586593628e-01 -1.721582859754562378e-01 3.202188760042190552e-02 1.408110857009887695e-01 1.459567993879318237e-01 -7.148998975753784180e-02 8.928952366113662720e-02 7.491891831159591675e-02 -1.543784234672784805e-02
-2.301929518580436707e-02 1.154465526342391968e-01 2.059373445808887482e-02 1.220181304961442947e-02 -3.215537220239639282e-02 -4.506213963031768799e-02 -1.290301829576492310e-01 9.363845735788345337e-02 -2.332122623920440674e-02 -5.854984000325202942e-02
1.889140903949737549e-02 -1.758679151535034180e-01 -9.163927286863327026e-02 1.415136605501174927e-01 -1.062422059476375580e-02 -1.738269925117492676e-01 4.022185504436492920e-02 -8.371976017951965332e-02 -4.126410931348800659e-03 -2.479087747633457184e-02
-6.116003915667533875e-02 -1.430818587541580200e-01 5.989163368940353394e-02 -5.500176921486854553e-03 1.892528613097965717e-03 2.849318645894527435e-02 -4.567297175526618958e-02 -9.399040043354034424e-02 4.176085442304611206e-02 1.315970271825790405e-01
-1.401067478582262993e-03 5.584358423948287964e-02 -2.486581169068813324e-02 4.055557772517204285e-02 -7.975884713232517242e-03 5.388768855482339859e-03 -3.086708858609199524e-02 4.441549256443977356e-02 -8.208806067705154419e-02 -2.307555638253688812e-02
1.926179416477680206e-02 -6.758869439363479614e-02 1.931511424481868744e-02 -8.652525953948497772e-03 1.762089282274246216e-01 1.086099147796630859e-01 1.996606588363647461e-02 3.238432109355926514e-02 7.671779952943325043e-03 -5.251967534422874451e-02
-5.112343281507492065e-02 1.040105149149894714e-01 -1.186102032661437988e-01 3.223388642072677612e-02 1.790841296315193176e-02 8.998141437768936157e-02 7.260718196630477905e-02 5.804372578859329224e-02 4.510749131441116333e-02 1.113144978880882263e-01
3.172856569290161133e-02 1.815270818769931793e-02 2.702267654240131378e-02 1.728599146008491516e-02 -4.099895805120468140e-02 1.253706067800521851e-01 -1.594889909029006958e-01 -7.118066307157278061e-03 1.226191129535436630e-02 1.076279804110527039e-01
-7.248755544424057007e-02 -3.420777618885040283e-02 -4.471509717404842377e-03 -4.594030231237411499e-02 4.480304196476936340e-02 7.252588123083114624e-02 5.382408201694488525e-02 1.174205988645553589e-01 -1.485574524849653244e-03 6.538589298725128174e-02
-1.266021095216274261e-02 -6.656222790479660034e-02 -7.876857370138168335e-02 2.783720567822456360e-02 -8.808085322380065918e-02 -6.588728167116641998e-03 1.952167972922325134e-02 -1.231233961880207062e-02 -4.741573240607976913e-03 1.077871993184089661e-01
-6.431780010461807251e-02 -1.472657471895217896e-01 7.340538501739501953e-02 -1.025709807872772217e-01 9.294482320547103882e-02 -1.277428567409515381e-01 -1.004746183753013611e-01 -4.983789473772048950e-02 -6.991472840309143066e-02 1.631514132022857666e-01
-1.525121927261352539e-01 -8.341206610202789307e-02 -1.606477200984954834e-01 -1.510173231363296509e-01 8.369752764701843262e-02 -3.700825199484825134e-02 6.011439114809036255e-02 -1.205680072307586670e-01 -1.908611059188842773e-01 6.213837489485740662e-02
-1.370822489261627197e-01 3.772603347897529602e-02 -7.311255484819412231e-02 -1.640630364418029785e-01 -9.345825761556625366e-03 -1.364154964685440063e-01 1.655713468790054321e-01 4.044135857839137316e-04 8.323763310909271240e-02 -2.183598000556230545e-03
5.867478623986244202e-02 -1.154136508703231812e-01 -5.123502388596534729e-02 9.118837863206863403e-02 1.408101618289947510e-01 1.975146122276782990e-02 -5.383652076125144958e-02 1.141811907291412354e-01 -8.482243865728378296e-02 1.468580514192581177e-01
-4.129834845662117004e-02 9.055612981319427490e-02 1.730989315547049046e-03 -4.262480139732360840e-02 -1.579370051622390747e-01 -4.173779860138893127e-02 1.535333544015884399e-01 1.561700999736785889e-01 -9.554959088563919067e-02 4.996772855520248413e-02
-6.804957985877990723e-02 -3.406482050195336342e-03 -1.704100705683231354e-02 -6.515356153249740601e-02 -1.238139346241950989e-01 -9.796773642301559448e-02 6.247913464903831482e-02 -7.450356334447860718e-02 -9.252081811428070068e-02 -1.730427294969558716e-01
-3.591343015432357788e-02 1.283681392669677734e-01 -4.154874011874198914e-02 1.073240395635366440e-02 2.997704222798347473e-02 -4.782249405980110168e-02 4.000366106629371643e-02 3.645392879843711853e-02 1.039579957723617554e-01 8.178233355283737183e-02
5.454082787036895752e-02 -1.008528247475624084e-01 1.754271239042282104e-01 4.725143313407897949e-02 1.206948608160018921e-01 4.634687304496765137e-02 4.829883947968482971e-02 -6.073158606886863708e-02 1.253538113087415695e-02 -9.718392044305801392e-02
-6.222699955105781555e-02 -1.098848804831504822e-01 -7.885134778916835785e-03 -6.095143035054206848e-02 1.810318976640701294e-01 -4.475351795554161072e-02 -6.526609510183334351e-02 1.368304789066314697e-01 1.338583976030349731e-02 1.042862161993980408e-01
7.386107742786407471e-02 4.621960222721099854e-03 1.034303531050682068e-01 3.554503619670867920e-02 1.019484698772430420e-01 -1.210976764559745789e-01 1.664088964462280273e-01 -4.322991147637367249e-02 -1.493095047771930695e-02 1.383513212203979492e-02
7.395810633897781372e-02 -1.635634303092956543e-01 -5.031855776906013489e-02 1.943011432886123657e-01 1.172585487365722656e-01 -4.828283190727233887e-02 -1.564258486032485962e-01 -1.635662764310836792e-01 2.590364962816238403e-02 1.100153103470802307e-02
-6.771165877580642700e-03 1.093161553144454956e-01 -1.052799522876739502e-01 9.032769128680229187e-03 -1.323455572128295898e-01 -9.280209988355636597e-02 -2.905294671654701233e-02 1.543115451931953430e-02 -1.032483647577464581e-03 -5.604219436645507812e-02
1.463775634765625000e-01 1.170372590422630310e-01 8.284714072942733765e-02 -6.120209023356437683e-02 -1.217073127627372742e-01 2.691553719341754913e-02 -1.307813525199890137e-01 8.293249458074569702e-02 5.412734672427177429e-02 1.313232630491256714e-01
-1.238187402486801147e-01 6.765859574079513550e-02 3.808963345363736153e-03 8.989810198545455933e-02 8.840623311698436737e-03 -7.518718391656875610e-02 1.064515337347984314e-01 -9.233582019805908203e-02 8.094656467437744141e-02 -8.196204155683517456e-02
-1.435347348451614380e-01 3.711508959531784058e-02 -1.413322612643241882e-02 6.138898804783821106e-02 -1.720228977501392365e-02 -8.374658226966857910e-02 1.753149926662445068e-02 5.638526380062103271e-02 -4.326770827174186707e-02 -4.745186492800712585e-02
1.079693213105201721e-01 -1.295059174299240112e-01 -1.848126575350761414e-02 -6.086911261081695557e-02 -1.563721448183059692e-01 5.305393412709236145e-02 5.356165394186973572e-02 -7.578919082880020142e-02 1.455242931842803955e-01 -1.236629858613014221e-01
-1.166506707668304443e-01 -1.012545973062515259e-01 4.807127639651298523e-02 -3.939125314354896545e-02 3.965507075190544128e-02 9.074804186820983887e-02 -5.058934539556503296e-02 7.224632799625396729e-02 4.392286390066146851e-02 -1.213806197047233582e-01
-1.355835702270269394e-02 -3.328629583120346069e-02 -7.743194699287414551e-03 -3.521437570452690125e-02 -1.400784868746995926e-02 4.779630154371261597e-02 -1.950816661119461060e-01 1.078860536217689514e-01 -1.329987198114395142e-01 5.447422340512275696e-02
-1.333196759223937988e-01 -1.250273431651294231e-03 3.279588650912046432e-03 1.488121692091226578e-02 -1.214714497327804565e-01 -1.647915542125701904e-01 -7.802224159240722656e-02 -1.223386526107788086e-01 -1.388052254915237427e-01 -1.623983085155487061e-01
-1.457831729203462601e-02 1.619739830493927002e-02 -1.112055256962776184e-01 -1.473617106676101685e-01 4.655547440052032471e-03 -3.273101896047592163e-02 1.843766868114471436e-02 -7.422394584864377975e-03 6.079347804188728333e-03 -5.431636795401573181e-02
-8.089823275804519653e-02 9.650581330060958862e-02 1.324409246444702148e-01 -8.569749072194099426e-03 -1.519569605588912964e-01 6.421874463558197021e-02 -1.129542011767625809e-02 1.344754248857498169e-01 8.883914351463317871e-02 -9.463503956794738770e-02
-7.850741595029830933e-02 -2.785384096205234528e-02 3.808040544390678406e-02 -5.348556488752365112e-02 7.115057855844497681e-02 2.303740009665489197e-02 -3.905895724892616272e-02 -2.655161917209625244e-02 1.141502708196640015e-01 -9.130732156336307526e-03
-1.568704545497894287e-01 9.232538193464279175e-02 1.478800363838672638e-02 -4.179852455854415894e-02 6.562060117721557617e-02 8.204733021557331085e-03 -6.266826298087835312e-03 -6.961883604526519775e-02 6.175411120057106018e-02 -3.306024521589279175e-02
-4.675820935517549515e-03 8.829223923385143280e-03 1.012459322810173035e-01 -4.997885227203369141e-02 1.329891234636306763e-01 -2.882598713040351868e-02 -1.751054674386978149e-01 9.345287084579467773e-02 1.215100809931755066e-01 1.217162460088729858e-01
3.469265624880790710e-02 -9.118899703025817871e-02 -1.793653331696987152e-02 -6.300563365221023560e-02 -1.103361397981643677e-01 -1.167751550674438477e-01 -2.783132344484329224e-02 -5.067492648959159851e-02 -2.638861909508705139e-02 -4.551791772246360779e-02
7.818219065666198730e-02 5.799865350127220154e-02 1.440082937479019165e-01 4.903953149914741516e-02 -2.346882596611976624e-02 -1.147847920656204224e-01 -1.287225782871246338e-01 -8.162590116262435913e-02 4.807661473751068115e-02 8.811363577842712402e-02
-1.634677052497863770e-01 -4.755333811044692993e-02 -1.688919812440872192e-01 4.713263362646102905e-02 -6.581427901983261108e-02 -1.396666164509952068e-03 -8.721145987510681152e-02 -1.676334589719772339e-01 2.953058853745460510e-02 -6.263607740402221680e-02
-3.959572315216064453e-02 3.211817890405654907e-02 4.449076578021049500e-02 1.799009889364242554e-01 -2.761279046535491943e-02 1.153632774949073792e-01 -1.875310987234115601e-01 -2.300355955958366394e-02 -2.903949096798896790e-02 -7.522416859865188599e-02
1.027309820055961609e-01 4.972043633460998535e-02 1.166200190782546997e-01 -1.421896368265151978e-01 -7.504460960626602173e-02 -1.612955480813980103e-01 -8.521223440766334534e-03 8.455788344144821167e-02 -7.175982464104890823e-03 -1.366368383169174194e-01
6.841139495372772217e-02 1.970162838697433472e-01 1.080081164836883545e-01 -4.615674912929534912e-02 2.324562706053256989e-02 -3.739410638809204102e-02 8.107896894216537476e-03 -5.337388440966606140e-02 -1.601939797401428223e-01 2.517629973590373993e-02
-7.375448942184448242e-02 -5.003488063812255859e-02 2.251118607819080353e-02 1.085963770747184753e-01 3.223867341876029968e-02 1.421961747109889984e-02 -1.660791188478469849e-01 1.887262798845767975e-02 -1.023868750780820847e-02 -1.486860588192939758e-02
1.317285746335983276e-01 -1.061758324503898621e-01 5.359909962862730026e-03 9.856915473937988281e-02 -3.925912454724311829e-02 6.199287250638008118e-02 -1.195926666259765625e-01 6.457787007093429565e-02 -5.104438960552215576e-02 3.383885324001312256e-02
9.097181260585784912e-02 2.732536569237709045e-02 1.879406161606311798e-02 2.299542538821697235e-02 5.804251134395599365e-02 2.507622726261615753e-02 -1.780281662940979004e-01 1.806306093931198120e-01 -8.410115726292133331e-03 1.882821768522262573e-01
-1.166473608464002609e-03 -6.333724409341812134e-02 8.719965070486068726e-02 -6.937970966100692749e-02 -3.452652692794799805e-02 1.144586596637964249e-02 -1.190508306026458740e-01 8.570265769958496094e-02 2.636167965829372406e-02 1.398006081581115723e-01
1.627479195594787598e-01 1.243909373879432678e-01 -8.879052102565765381e-02 4.133782163262367249e-02 -1.429053097963333130e-01 -4.680574685335159302e-02 4.504136368632316589e-02 1.459432095289230347e-01 1.221378333866596222e-02 -5.467222630977630615e-02
1.244291514158248901e-01 -7.932445034384727478e-03 2.914387360215187073e-02 1.659974083304405212e-02 -6.854298990219831467e-03 1.118284389376640320e-01 -1.641095988452434540e-02 -8.052074909210205078e-02 -5.016531050205230713e-02 -2.005594782531261444e-03
7.965129613876342773e-02 -1.274275034666061401e-01 -1.719407886266708374e-01 -1.221731975674629211e-01 -7.781435549259185791e-02 1.194997429847717285e-01 8.390207588672637939e-02 8.281160145998001099e-02 1.709910458885133266e-03 1.918253302574157715e-02
-1.091629713773727417e-01 -5.425166711211204529e-02 -3.934595361351966858e-02 3.552205488085746765e-02 -2.829785645008087158e-02 -2.990093082189559937e-02 3.766737878322601318e-02 -2.310773544013500214e-02 1.963113993406295776e-01 3.275015205144882202e-02
-1.002348661422729492e-01 -8.106444776058197021e-02 -1.597837209701538086e-01 1.075506675988435745e-02 -3.925820055883377790e-04 -1.761600971221923828e-01 3.736431896686553955e-02 5.201316438615322113e-03 1.322144269943237305e-01 8.164428174495697021e-03
-1.512437220662832260e-02 -1.326631661504507065e-02 -3.796685114502906799e-02 2.494069747626781464e-02 -5.313047766685485840e-02 -1.236568018794059753e-01 1.787128150463104248e-01 3.520912304520606995e-02 -8.681021630764007568e-03 -9.870158880949020386e-02
1.213893219828605652e-01 -3.572613373398780823e-02 -1.468478292226791382e-01 7.700990885496139526e-02 6.620498746633529663e-02 -1.034792065620422363e-01 1.290728300809860229e-01 8.174479007720947266e-02 2.249914221465587616e-02 4.132017120718955994e-02
-5.234054476022720337e-02 6.416031718254089355e-02 2.250002697110176086e-02 1.700403094291687012e-01 2.368537895381450653e-02 -2.561195939779281616e-02 -6.728674471378326416e-02 -3.363753855228424072e-02 -1.384235769510269165e-01 5.607678368687629700e-02
7.482358068227767944e-02 -1.114268600940704346e-01 -6.627003848552703857e-02 1.498122215270996094e-01 1.526185683906078339e-02 -2.828782051801681519e-02 -3.962763026356697083e-02 1.203124150633811951e-01 -6.843226402997970581e-02 1.313166767358779907e-01
1.900745369493961334e-02 -1.775816082954406738e-01 6.357354670763015747e-02 -3.458863124251365662e-02 -7.496073842048645020e-02 3.652707487344741821e-02 -8.824364840984344482e-02 -2.945510111749172211e-02 -1.104749739170074463e-01 2.098785154521465302e-02
7.407715171575546265e-02 4.424114525318145752e-02 6.429132074117660522e-02 1.162131503224372864e-01 7.045609503984451294e-02 1.423526406288146973e-01 5.954729020595550537e-02 -8.106610039249062538e-06 -8.493688702583312988e-02 -2.904822584241628647e-03
-4.496103525161743164e-02 1.274689137935638428e-01 -9.816383570432662964e-02 9.214751422405242920e-02 -9.626635164022445679e-02 -2.818947285413742065e-02 9.402699768543243408e-02 -9.340267628431320190e-02 -5.374945327639579773e-02 -1.510993242263793945e-01
-5.077503621578216553e-02 -3.389794006943702698e-02 -2.956928499042987823e-02 1.402694582939147949e-01 6.614498794078826904e-02 -1.640447042882442474e-02 -4.739805683493614197e-02 9.957365691661834717e-02 -2.169184945523738861e-02 -4.332095384597778320e-02
6.428627762943506241e-03 9.511379897594451904e-02 7.562442868947982788e-02 3.165421634912490845e-02 -4.542584344744682312e-02 -9.280156344175338745e-02 4.897120594978332520e-02 -5.709626525640487671e-02 -5.365062505006790161e-02 1.834040135145187378e-02
8.357506990432739258e-02 1.375886052846908569e-01 -1.362572461366653442e-01 -4.385671392083168030e-02 -8.564668893814086914e-02 -1.157573908567428589e-01 3.708676993846893311e-02 -2.328341268002986908e-02 -6.809302605688571930e-03 2.722087875008583069e-02
-1.138597950339317322e-01 -4.563761875033378601e-02 -7.078636437654495239e-02 -7.012121379375457764e-02 -6.546732038259506226e-02 -7.946440577507019043e-02 1.560225635766983032e-01 -1.414657831192016602e-01 -1.260308623313903809e-01 -3.292795643210411072e-02
-3.438803181052207947e-02 -7.265825569629669189e-02 2.028394117951393127e-02 -8.764071762561798096e-02 8.474079519510269165e-02 3.566128015518188477e-02 -1.823692172765731812e-01 -1.112583503127098083e-01 -3.121021017432212830e-02 1.123085319995880127e-01
-1.518923602998256683e-02 -6.321414839476346970e-03 -5.711483210325241089e-02 -3.319211304187774658e-02 1.696120761334896088e-02 4.422844573855400085e-02 -3.690926358103752136e-02 -1.042614951729774475e-01 4.573095962405204773e-02 -4.792571812868118286e-02
3.283604979515075684e-02 -1.573890000581741333e-01 -1.775398850440979004e-01 -3.347640112042427063e-02 2.981438115239143372e-02 6.716437637805938721e-03 5.329981073737144470e-02 -3.054159693419933319e-02 -1.598558276891708374e-01 9.080003947019577026e-02
-8.002819120883941650e-02 1.860547512769699097e-01 -8.581449836492538452e-02 7.488717138767242432e-02 -2.173698693513870239e-02 1.071547046303749084e-01 -2.233325690031051636e-02 -7.345463335514068604e-02 -6.416981667280197144e-02 -7.619569078087806702e-03
-1.919032260775566101e-02 1.609453931450843811e-02 7.670331001281738281e-02 5.552127957344055176e-02 1.483147591352462769e-01 -1.175538226962089539e-01 6.681559979915618896e-02 -7.438004761934280396e-02 -2.650193870067596436e-02 -7.093221414834260941e-03
8.759914338588714600e-02 1.097426414489746094e-01 -1.269377321004867554e-01 -1.478898227214813232e-01 -1.280397474765777588e-01 2.450424805283546448e-02 6.694430857896804810e-02 1.614552289247512817e-01 -1.907888241112232208e-02 -6.941290944814682007e-02
4.870377480983734131e-02 -1.720551848411560059e-01 -7.310552150011062622e-02 -6.663975119590759277e-02 -3.970532212406396866e-03 -6.504546850919723511e-02 -3.069533035159111023e-02 6.133570149540901184e-02 8.256647735834121704e-02 -4.272432252764701843e-02
9.885764867067337036e-02 -8.621264994144439697e-02 -1.095984354615211487e-01 9.960091859102249146e-02 -6.770826131105422974e-02 5.243723094463348389e-02 1.657601073384284973e-02 1.875617802143096924e-01 -1.565389484167098999e-01 -9.539145231246948242e-02
6.613568961620330811e-02 -5.675583705306053162e-02 1.196803450584411621e-01 5.609028413891792297e-02 -1.195698394440114498e-03 8.730136603116989136e-02 1.358446031808853149e-01 -1.740763895213603973e-02 5.810404662042856216e-03 -7.067409902811050415e-02
5.140994116663932800e-02 4.805032163858413696e-02 -5.740067735314369202e-02 -9.647591412067413330e-02 1.628408432006835938e-01 1.657504737377166748e-01 4.906142130494117737e-02 3.657960519194602966e-02 -9.659853577613830566e-02 1.977203190326690674e-01
