-1.024330314248800278e-02
-2.424164442345499992e-03
2.052233554422855377e-03
-3.677726024761795998e-03
2.325123408809304237e-03
-3.256613621488213539e-03
-8.112784475088119507e-03
-1.486921450123190880e-03
1.435352023690938950e-03
-1.039263512939214706e-02
-8.389277383685112000e-03
-9.851430542767047882e-03
-1.818667515181005001e-03
-1.998852472752332687e-03
4.920456092804670334e-03
-2.764711156487464905e-03
-6.000137887895107269e-03
-5.518389400094747543e-03
-5.347139202058315277e-03
-6.326809991151094437e-03
-5.387972574681043625e-03
-6.887837662361562252e-04
-1.093177590519189835e-03
3.719430183991789818e-03
-6.001931149512529373e-03
-2.700309734791517258e-03
-4.116251948289573193e-04
-7.036642637103796005e-03
-3.217768156901001930e-03
-1.007107668556272984e-03
-3.171231132000684738e-03
1.336014596745371819e-03
-5.548301618546247482e-03
-2.677379408851265907e-03
-2.420602599158883095e-03
-4.771141801029443741e-03
-5.999439395964145660e-03
-6.672029383480548859e-03
-6.865171599201858044e-04
2.453236840665340424e-03
-6.979532190598547459e-04
-3.754734527319669724e-03
-5.451531615108251572e-04
3.456229169387370348e-04
2.039015060290694237e-03
-2.358091995120048523e-03
2.748990664258599281e-04
-1.625877455808222294e-03
-7.989292498677968979e-05
2.796601736918091774e-03
-3.864990780130028725e-03
-1.258527394384145737e-03
-9.641726501286029816e-03
6.805375451222062111e-04
-1.747453585267066956e-03
-7.138665299862623215e-03
-4.981548059731721878e-03
-2.604601322673261166e-04
-9.983921190723776817e-04
-4.466864746063947678e-03
-1.899545895867049694e-03
-4.370386246591806412e-03
-2.558167325332760811e-03
-2.869036979973316193e-03
2.792156767100095749e-03
-1.769576920196413994e-03
-8.025563322007656097e-03
-2.550003584474325180e-03
-6.531162653118371964e-03
-9.885678999125957489e-03
-5.225553177297115326e-03
1.305197249166667461e-03
-6.059297360479831696e-03
1.406066003255546093e-04
1.707085641101002693e-03
5.437661311589181423e-04
-5.578765645623207092e-03
-1.138243474997580051e-03
-3.872786182910203934e-03
-5.680010654032230377e-03
-1.554734772071242332e-03
-1.142166275531053543e-02
-3.151113167405128479e-03
-2.598228398710489273e-03
1.096983556635677814e-03
-5.318050272762775421e-03
-5.745844449847936630e-03
-3.485371591523289680e-03
1.039090348058380187e-04
-4.480452043935656548e-04
-5.207345820963382721e-03
-1.989203738048672676e-04
-4.548300988972187042e-03
-3.467749571427702904e-03
-1.498570758849382401e-02
-5.001775920391082764e-03
8.617308922111988068e-04
-1.590607105754315853e-03
-6.003279238939285278e-03
2.235260792076587677e-03
-2.361423830734565854e-04
-4.216943867504596710e-03
-2.072755713015794754e-03
3.519517777021974325e-04
-7.334646070376038551e-04
3.113636747002601624e-03
-5.916469963267445564e-04
-3.417898900806903839e-03
-9.489250369369983673e-03
-3.183380234986543655e-03
1.072999788448214531e-03
-6.620469037443399429e-03
-6.484076380729675293e-03
-8.013684302568435669e-03
-1.060841418802738190e-02
5.675218999385833740e-04
-1.589718740433454514e-03
-1.065082754939794540e-02
-6.042043212801218033e-03
-1.129334885627031326e-02
-6.144759710878133774e-03
-2.864959416911005974e-03
4.166048485785722733e-03
2.024200075538828969e-04
-5.699242930859327316e-03
-8.670215494930744171e-03
3.062076575588434935e-04
2.136730588972568512e-03
-1.313000684604048729e-03
-2.733954694122076035e-03
-6.593041121959686279e-03
-2.058499085251241922e-04
-5.796634126454591751e-03
-5.092479754239320755e-03
-1.450012437999248505e-03
-6.784733384847640991e-03
-5.968410521745681763e-03
-1.489925780333578587e-03
-8.753805421292781830e-03
-5.145831964910030365e-04
-6.438341923058032990e-03
-7.681502494961023331e-03
-3.316451329737901688e-03
2.372129587456583977e-03
-6.317982915788888931e-03
-5.133127328008413315e-03
-3.449912881478667259e-03
-2.931961324065923691e-03
-4.755694419145584106e-03
-2.394535113126039505e-03
-6.988193374127149582e-03
2.293026074767112732e-03
-3.446975722908973694e-03
-8.790660649538040161e-03
-1.048963516950607300e-02
-1.673979451879858971e-03
-8.209664374589920044e-03
-3.353326115757226944e-03
-1.940391492098569870e-03
4.238493565935641527e-04
-5.479789339005947113e-03
-7.831717841327190399e-03
-5.104058422148227692e-03
-6.000529509037733078e-03
-2.431650646030902863e-03
-1.953728962689638138e-03
-2.493038307875394821e-03
-7.609470630995929241e-04
-6.763910874724388123e-03
-4.776382120326161385e-04
-6.669591180980205536e-03
5.257903598248958588e-03
-5.803597159683704376e-03
-2.646367996931076050e-03
-1.945515628904104233e-03
-4.454265348613262177e-03
-8.212692104279994965e-03
-6.130786146968603134e-03
-6.883886177092790604e-03
-7.285160012543201447e-03
-3.597298869863152504e-03
-3.062010277062654495e-03
-1.738895080052316189e-03
-6.279694382101297379e-03
-3.535506548359990120e-03
-5.191036034375429153e-03
-1.462760614231228828e-03
-1.094653387553989887e-03
-7.497749291360378265e-03
-6.662257015705108643e-03
-1.566839986480772495e-03
1.224811887368559837e-03
-1.246441528201103210e-02
5.610289983451366425e-03
-7.612429559230804443e-03
-5.360706243664026260e-03
-3.254376584663987160e-03
2.414013579254969954e-06
2.778720227070152760e-04
-7.963088341057300568e-03
-5.851633381098508835e-03
-4.978603683412075043e-03
1.095647690817713737e-03
-8.676727302372455597e-04
4.138776566833257675e-03
-1.658917171880602837e-04
-7.289856439456343651e-04
9.857912082225084305e-04
-4.950257018208503723e-03
3.701176727190613747e-03
-4.005443770438432693e-03
-2.848007716238498688e-03
-4.659801197703927755e-04
-2.378929406404495239e-03
2.000843640416860580e-03
-6.710458081215620041e-03
-6.992634851485490799e-03
-2.069335896521806717e-04
1.131424505729228258e-05
-8.719203993678092957e-03
-4.649841692298650742e-03
1.319751725532114506e-03
3.422353183850646019e-03
-1.434746081940829754e-03
8.033186895772814751e-04
-7.836800068616867065e-03
-5.205439869314432144e-03
-2.781630260869860649e-03
-5.733871366828680038e-04
-7.455605082213878632e-03
4.775664303451776505e-03
-5.549279972910881042e-03
-5.434202030301094055e-03
-4.758757539093494415e-03
-3.839757526293396950e-03
-8.785063400864601135e-03
-5.471479613333940506e-03
-1.427669893018901348e-03
-1.104636490345001221e-02
4.950388683937489986e-04
-3.570982255041599274e-03
-1.192946336232125759e-03
-6.634006276726722717e-03
-2.311573829501867294e-03
5.664669908583164215e-03
-6.131761241704225540e-03
-2.253427170217037201e-03
2.945956774055957794e-03
-5.989582743495702744e-03
-9.300706908106803894e-03
3.041862044483423233e-03
-5.456772632896900177e-03
-3.194616641849279404e-03
1.569749205373227596e-03
-2.124114427715539932e-03
-4.811364691704511642e-03
-7.252533920109272003e-03
2.916103927418589592e-03
-4.525291267782449722e-03
-3.368956386111676693e-04
-4.834038205444812775e-03
-7.146283984184265137e-03
-3.911312669515609741e-03
-7.590027060359716415e-03
-7.224657107144594193e-03
-7.106471341103315353e-03
-1.186107099056243896e-02
-7.599346805363893509e-03
-5.105618387460708618e-03
-6.004487164318561554e-03
-4.943957086652517319e-03
-7.848757086321711540e-04
-5.901659373193979263e-03
-8.601186797022819519e-03
-2.837512409314513206e-03
-7.563769817352294922e-03
-7.472050841897726059e-03
9.631671709939837456e-04
1.554174930788576603e-03
-8.370103314518928528e-03
-6.002761423587799072e-03
2.470825333148241043e-03
-4.578579217195510864e-03
-1.555462367832660675e-03
7.429546094499528408e-04
-5.989924073219299316e-03
-9.181917994283139706e-04
-7.573009934276342392e-03
-4.842068534344434738e-03
-4.770286381244659424e-03
-5.250929854810237885e-03
-7.878140546381473541e-03
-8.061361499130725861e-03
-1.154472120106220245e-03
-5.456119106383994222e-05
-3.785552224144339561e-03
9.886250831186771393e-03
-2.119154087267816067e-04
-7.223078981041908264e-03
-1.084111630916595459e-03
-5.997655447572469711e-03
-4.387753084301948547e-03
-1.413438702002167702e-03
-3.529978450387716293e-03
2.245215931907296181e-03
-5.125802475959062576e-03
-7.867604494094848633e-03
6.402660161256790161e-03
-3.994958940893411636e-03
-5.343670491129159927e-03
-1.114354003220796585e-03
-8.920415304601192474e-03
-3.457114566117525101e-03
9.266812703572213650e-04
-8.559987880289554596e-03
-9.405638091266155243e-03
-6.406763102859258652e-03
-4.266463685780763626e-03
-1.382963848300278187e-03
-5.873790942132472992e-03
-5.150118377059698105e-03
-7.907220162451267242e-03
-2.960911253467202187e-03
-1.695074839517474174e-03
-3.542344318702816963e-03
-1.891910098493099213e-03
-5.562654696404933929e-03
-8.459464646875858307e-03
-3.658077330328524113e-04
6.576408632099628448e-03
-6.560275331139564514e-03
-4.885053727775812149e-03
-6.606572307646274567e-03
-1.292171422392129898e-03
-1.075491658411920071e-03
-8.555779233574867249e-03
-4.244101233780384064e-03
-1.985503331525251269e-04
-6.113396957516670227e-03
6.732232286594808102e-04
-7.015754003077745438e-03
1.583020784892141819e-03
2.019383246079087257e-03
-5.955047439783811569e-03
2.571629127487540245e-03
-2.726752310991287231e-03
-5.327468737959861755e-03
1.041186740621924400e-03
-8.358023129403591156e-03
-4.511110950261354446e-03
8.262905175797641277e-04
-1.186560490168631077e-03
-4.005978349596261978e-03
1.343316049315035343e-03
7.095881737768650055e-04
-5.997414235025644302e-03
-2.448275219649076462e-03
-1.326433732174336910e-03
-2.004311420023441315e-03
-1.141716539859771729e-02
3.306601662188768387e-03
-1.191625487990677357e-03
-7.718811742961406708e-03
-4.987894091755151749e-03
-1.073392457328736782e-03
-8.506740443408489227e-03
1.278559648199006915e-04
9.628222906030714512e-04
1.061997027136385441e-03
-6.445221370086073875e-04
2.221148693934082985e-03
-4.586777184158563614e-03
-8.289262652397155762e-03
-2.236049622297286987e-03
-1.539873774163424969e-04
-1.433693803846836090e-03
-4.616230726242065430e-03
4.668823443353176117e-03
-3.219601698219776154e-03
-8.576348423957824707e-03
-8.037536754272878170e-04
-6.402559578418731689e-03
-3.049156162887811661e-03
2.588513074442744255e-03
5.245061591267585754e-03
2.267105039209127426e-03
6.470957305282354355e-04
-1.193584466818720102e-04
2.580294152721762657e-03
-1.531783491373062134e-03
7.124320603907108307e-03
-1.189066562801599503e-03
-6.417801138013601303e-03
-5.512164440006017685e-03
-8.504114113748073578e-03
3.898341092281043530e-04
-4.923671367578208447e-04
-1.234126277267932892e-03
-6.955937482416629791e-03
-1.388612203299999237e-03
-4.068618174642324448e-03
4.106939886696636677e-04
-1.096130348742008209e-03
-8.045581169426441193e-03
-4.504155367612838745e-03
3.791954368352890015e-03
-2.273519057780504227e-04
-8.145961910486221313e-03
-2.151221269741654396e-03
-2.308523980900645256e-04
-3.252983791753649712e-03
-5.455860868096351624e-03
-1.293275388889014721e-03
-3.607035032473504543e-04
-3.915041685104370117e-03
-1.485141692683100700e-04
4.644282627850770950e-03
-4.347187001258134842e-03
8.985923486761748791e-04
-7.334607187658548355e-03
-1.086153788492083549e-03
-5.807253997772932053e-03
-5.318517331033945084e-03
-9.090611711144447327e-03
-2.675185911357402802e-03
-5.308288382366299629e-04
-5.197162274271249771e-03
-5.275712348520755768e-03
-3.227897221222519875e-03
-8.457108400762081146e-03
-6.474168039858341217e-03
3.153490368276834488e-03
5.034248461015522480e-04
-6.564520299434661865e-03
-4.272564314305782318e-03
-6.209697574377059937e-03
-6.555127911269664764e-03
-2.947588509414345026e-04
-3.010472748428583145e-03
-5.126895383000373840e-03
-4.817115608602762222e-03
-6.115790456533432007e-03
-2.166612393921241164e-04
2.567318733781576157e-03
-9.305954910814762115e-03
1.004028308670967817e-04
7.041620556265115738e-04
-4.547556862235069275e-03
-6.890004500746726990e-03
-6.992663722485303879e-03
4.703946411609649658e-03
-1.323580159805715084e-03
4.149475600570440292e-03
-6.220294628292322159e-03
-1.248561078682541847e-03
-5.317672039382159710e-04
-9.742791007738560438e-05
-4.368756432086229324e-03
-6.626169197261333466e-03
-4.824323405046015978e-04
-9.595144656486809254e-04
3.737800288945436478e-03
-2.688839565962553024e-03
-6.393908523023128510e-03
-4.967987537384033203e-03
-9.496315382421016693e-03
-6.458732765167951584e-03
3.576236194930970669e-04
-7.623325218446552753e-04
1.084856921806931496e-03
2.447772771120071411e-03
-4.899083636701107025e-03
-7.248363923281431198e-03
4.464463330805301666e-03
-4.389821086078882217e-03
4.184992518275976181e-03
1.915068598464131355e-03
2.550818491727113724e-03
-6.407248787581920624e-03
1.790372305549681187e-03
3.041245043277740479e-03
-3.763883607462048531e-03
-5.727612413465976715e-03
2.009917516261339188e-03
1.999367726966738701e-03
5.772472824901342392e-03
-7.942014373838901520e-03
-1.537819625809788704e-04
1.043328549712896347e-03
-5.385765340179204941e-03
-2.764429664239287376e-03
3.058233996853232384e-03
-2.896148478612303734e-03
-1.050544553436338902e-03
-8.807091508060693741e-04
-5.848409142345190048e-03
-2.230697544291615486e-03
-4.776726942509412766e-03
-2.111162757501006126e-03
2.211165614426136017e-03
2.424862235784530640e-03
-6.013459526002407074e-03
-1.040750276297330856e-02
-6.428033579140901566e-03
-1.192150055430829525e-03
-6.837127148173749447e-04
1.096824533306062222e-03
3.361221868544816971e-03
-2.885807771235704422e-03
-4.279301036149263382e-03
-4.895295947790145874e-03
-1.360696391202509403e-03
-2.215420361608266830e-03
-2.952374983578920364e-03
4.946599947288632393e-04
-8.386776782572269440e-03
-6.488808896392583847e-03
-7.174517493695020676e-03
-7.255065138451755047e-04
-3.120548790320754051e-03
4.147757310420274734e-03
-3.623020136728882790e-03
-5.002987571060657501e-03
-1.060783676803112030e-02
-9.443192742764949799e-03
3.418509149923920631e-04
-4.061778541654348373e-03
-6.655815988779067993e-03
3.895675763487815857e-03
-5.986583884805440903e-03
-2.361208666115999222e-03
-3.085877513512969017e-03
-9.137254208326339722e-03
-4.812663886696100235e-03
-3.472152166068553925e-04
-5.055094137787818909e-03
-7.219434715807437897e-03
1.301053329370915890e-03
-6.091581191867589951e-03
5.935963708907365799e-04
-4.272036021575331688e-04
1.510209520347416401e-03
-4.294853657484054565e-03
-5.836728028953075409e-03
3.521700156852602959e-03
-6.126842461526393890e-03
-4.454234614968299866e-03
-4.884995985776185989e-03
-7.780957035720348358e-03
-1.392961246892809868e-03
-4.357536323368549347e-03
-7.858920842409133911e-03
-1.123008783906698227e-02
-7.107041310518980026e-03
0.000000000000000000e+00
-8.539525792002677917e-03
1.200619386509060860e-03
-6.000136956572532654e-03
8.647746872156858444e-04
-6.597523111850023270e-03
1.462660962715744972e-03
2.044660272076725960e-03
-8.847639895975589752e-03
-7.992413011379539967e-04
-3.699470777064561844e-03
4.130059387534856796e-03
-4.302153363823890686e-03
-3.815643955022096634e-03
-2.925486536696553230e-03
-1.944355550222098827e-03
-1.296542026102542877e-02
-3.881331067532300949e-03
-2.656110795214772224e-03
-5.231043323874473572e-03
2.329774666577577591e-03
-6.541849579662084579e-03
-5.908661987632513046e-03
2.827176358550786972e-04
-6.706713233143091202e-03
2.180870855227112770e-03
-2.694620983675122261e-03
-3.426333889365196228e-03
-1.915417495183646679e-03
-1.099021639674901962e-02
1.607903861440718174e-03
-3.311165375635027885e-03
-8.464277721941471100e-03
-9.117318317294120789e-03
-1.461145351640880108e-03
-2.721272641792893410e-03
-5.040120799094438553e-03
1.002679695375263691e-03
-2.592497970908880234e-03
-1.573688467033207417e-03
3.143136389553546906e-03
-2.368941350141540170e-04
2.010008553043007851e-03
-2.512956038117408752e-03
-1.808118686312809587e-04
-7.588573265820741653e-03
-3.839215030893683434e-03
-5.038722883909940720e-03
-3.676034044474363327e-03
-5.262571503408253193e-04
-5.832507275044918060e-03
-6.140043493360280991e-03
-3.204747103154659271e-03
-4.736649803817272186e-03
-8.977585239335894585e-04
-6.424252875149250031e-03
-5.199455656111240387e-03
-3.012020839378237724e-03
-2.223412506282329559e-03
8.295803563669323921e-04
-6.143209990113973618e-03
-5.998148582875728607e-03
-1.285380567423999310e-03
-1.038173865526914597e-02
-1.513427589088678360e-03
-1.695394021226093173e-04
1.325015327893197536e-03
-3.615044290199875832e-03
5.103514529764652252e-03
-5.260686855763196945e-03
-6.884732283651828766e-04
-3.770805895328521729e-03
-6.763337180018424988e-03
-4.290251061320304871e-03
-7.421832066029310226e-03
5.372869054554030299e-05
-6.735607516020536423e-03
-5.998406093567609787e-03
-2.875519683584570885e-03
-1.874199951998889446e-03
-7.275666575878858566e-04
-2.388627966865897179e-03
1.359383459202945232e-03
-2.171314088627696037e-03
-9.882882237434387207e-03
-6.079252343624830246e-03
5.414755432866513729e-04
-3.941441886126995087e-03
1.578395167598500848e-04
-6.792385596781969070e-03
8.273043204098939896e-04
-1.965146977454423904e-03
1.812373986467719078e-03
-1.459920458728447556e-04
-3.277113428339362144e-03
2.452848479151725769e-03
-7.325962069444358349e-04
-2.682756632566452026e-03
2.211933257058262825e-03
-2.733865287154912949e-03
-4.707750398665666580e-03
3.008862491697072983e-03
-5.398367997258901596e-03
-1.856080838479101658e-03
-2.021942520514130592e-03
2.694436698220670223e-04
-5.922022275626659393e-03
-5.493850447237491608e-03
-1.010427437722682953e-02
9.230782161466777325e-04
-3.775003133341670036e-03
-7.762573193758726120e-03
-9.475321276113390923e-04
-6.469816900789737701e-03
-4.109018947929143906e-03
-1.291882945224642754e-03
-4.156231880187988281e-03
-5.440702196210622787e-03
-5.495367571711540222e-03
-5.551485810428857803e-03
5.215362645685672760e-03
-3.412669757381081581e-03
-6.821164395660161972e-03
6.571806967258453369e-03
-1.198526355437934399e-03
-3.437530016526579857e-03
-1.674511004239320755e-03
-1.161258551292121410e-03
-6.003841757774353027e-03
-5.988297984004020691e-03
1.517099561169743538e-03
1.029912615194916725e-03
-4.455502144992351532e-03
1.862769946455955505e-03
-3.430010052397847176e-03
-6.003567948937416077e-03
1.486196764744818211e-03
-1.534885144792497158e-03
-4.088092129677534103e-03
-3.391779027879238129e-03
2.997962525114417076e-03
-6.726170424371957779e-03
1.837775576859712601e-03
-1.169753377325832844e-03
-4.547423683106899261e-03
-2.949042012915015221e-03
3.903758013620972633e-03
4.355086944997310638e-03
-5.956279579550027847e-03
-7.912092842161655426e-03
-1.801221049390733242e-03
-2.879534848034381866e-03
-6.375871598720550537e-03
-1.233285642229020596e-03
-1.625027507543563843e-03
-4.506292752921581268e-03
6.352976779453456402e-04
-6.572851911187171936e-03
-2.460291376337409019e-03
-3.233669558539986610e-04
-5.935160443186759949e-04
2.834169892594218254e-03
3.372224047780036926e-03
-1.522163394838571548e-03
-3.904796903952956200e-03
-4.675756208598613739e-03
-1.211215159855782986e-03
-9.279249352402985096e-04
1.212167902849614620e-03
-3.011084394529461861e-03
-9.922875324264168739e-04
2.424132311716675758e-03
-4.757932620123028755e-04
-6.025473121553659439e-04
-6.222072057425975800e-03
-6.891051772981882095e-03
-1.002630125731229782e-02
-7.848937064409255981e-03
-6.002092268317937851e-03
-5.205761641263961792e-03
-6.028194446116685867e-03
-1.316566776949912310e-04
-7.144828327000141144e-03
-9.165107272565364838e-03
-8.684293366968631744e-03
-5.401519127190113068e-03
1.245266990736126900e-03
-5.551260896027088165e-03
4.057467449456453323e-03
-2.490070648491382599e-03
-1.873932051239535213e-04
-4.853964783251285553e-03
-6.613156758248806000e-03
-2.100797137245535851e-03
1.894759130664169788e-03
6.188687868416309357e-03
1.749606308294460177e-04
-8.028650190681219101e-04
-6.214296910911798477e-03
-5.042159929871559143e-03
-2.317092847079038620e-03
-6.992759183049201965e-03
-2.399284392595291138e-03
-2.842126181349158287e-03
2.131185727193951607e-03
3.661069786176085472e-03
4.973099566996097565e-03
-2.879677107557654381e-03
-7.691627833992242813e-03
-4.163109697401523590e-04
-3.331472398713231087e-03
-9.800013154745101929e-03
-5.285795778036117554e-03
-2.316809957846999168e-03
-1.452491385862231255e-03
-2.448175335302948952e-03
-1.085629407316446304e-02
-6.628132890909910202e-03
-6.556656677275896072e-03
-1.533783623017370701e-03
-4.312234930694103241e-03
-9.664592216722667217e-04
3.351568942889571190e-03
2.659078454598784447e-03
5.093903746455907822e-04
-7.718817330896854401e-03
5.380888003855943680e-03
2.619297883938997984e-04
-6.384118925780057907e-03
1.385163865052163601e-03
-2.833221806213259697e-03
-1.487756730057299137e-03
8.742511272430419922e-04
-8.239973336458206177e-03
-8.056958205997943878e-03
2.037852536886930466e-03
1.010419684462249279e-03
1.143371919170022011e-04
-6.929091177880764008e-03
-9.497078135609626770e-03
-5.526035092771053314e-03
5.435093771666288376e-04
-2.132011577486991882e-03
-6.949082016944885254e-03
-4.396718461066484451e-03
-7.068427279591560364e-03
-7.122542243450880051e-03
3.890753941959701478e-05
-1.783336163498461246e-03
-3.912776708602905273e-03
-4.224360920488834381e-03
-6.533873733133077621e-03
-9.027312509715557098e-03
-6.292984355241060257e-03
-4.580613691359758377e-03
-5.239189136773347855e-03
-4.479843657463788986e-03
7.655728841200470924e-04
-2.768052741885185242e-03
-5.973901716060936451e-04
-6.485614925622940063e-03
-6.890275515615940094e-03
-6.611944991163909435e-04
5.971434991806745529e-03
-6.003876216709613800e-03
-9.003740735352039337e-03
-4.541576374322175980e-03
-5.288008600473403931e-03
-4.582390654832124710e-03
-6.003328133374452591e-03
-2.548944903537631035e-03
-7.649119012057781219e-03
-6.205398123711347580e-03
1.042549125850200653e-02
-4.070155788213014603e-03
-4.161536693572998047e-03
3.305918769910931587e-03
-6.170684471726417542e-03
-1.726975897327065468e-03
-4.447654820978641510e-03
-2.203206997364759445e-03
-5.935087800025939941e-03
3.838918404653668404e-03
-4.598523024469614029e-03
-7.481548469513654709e-03
-6.002334412187337875e-03
-6.015096791088581085e-03
-3.276551724411547184e-04
9.978709276765584946e-04
-5.331661552190780640e-03
-6.667301990091800690e-03
-7.719901856034994125e-03
-3.401409136131405830e-03
-8.118948899209499359e-03
-1.258649514056742191e-03
4.081960767507553101e-03
2.206871140515431762e-04
3.112968057394027710e-03
-4.510788712650537491e-03
-8.522479911334812641e-04
4.289054311811923981e-03
-1.286089536733925343e-03
-2.411882393062114716e-03
-4.863845650106668472e-03
-3.581398341339081526e-04
3.726742696017026901e-03
-5.994825158268213272e-03
7.415953441523015499e-04
-2.423641271889209747e-03
-2.933568088337779045e-03
-7.086498662829399109e-03
-1.668269280344247818e-03
-5.109367892146110535e-03
-4.314889200031757355e-03
-3.488060086965560913e-03
-9.176360443234443665e-03
3.953596111387014389e-03
-5.512678995728492737e-03
-2.541145542636513710e-03
3.361295908689498901e-03
2.779663773253560066e-04
2.427241764962673187e-03
4.585345159284770489e-04
1.949704950675368309e-03
-6.585119757801294327e-03
9.602200007066130638e-04
8.368306444026529789e-04
-1.245415653102099895e-03
-2.020101761445403099e-03
-1.484566018916666508e-03
-4.383186751510947943e-04
-5.232840776443481445e-04
8.833016036078333855e-04
-2.386162756010890007e-03
3.820633981376886368e-03
-3.694715909659862518e-03
5.748602561652660370e-03
-8.390538394451141357e-03
-7.221110165119171143e-03
-1.989337382838129997e-03
2.695793285965919495e-03
-1.767961657606065273e-03
-8.154055103659629822e-03
2.211662707850337029e-03
5.843050894327461720e-04
3.922473639249801636e-03
5.398792214691638947e-03
7.734674727544188499e-04
-8.551987819373607635e-03
-7.507026311941444874e-04
-1.346247969195246696e-03
-5.878411233425140381e-03
-7.948753423988819122e-03
-5.996244959533214569e-03
-2.647156594321131706e-03
-9.297705255448818207e-03
-8.274971507489681244e-03
-9.424356743693351746e-03
-8.529534563422203064e-03
-8.022601716220378876e-03
-6.260149180889129639e-03
-3.401112277060747147e-03
1.726359827443957329e-03
-3.567977808415889740e-03
1.001841155812144279e-03
-4.044912289828062057e-03
-1.333737187087535858e-02
-6.460616365075111389e-03
-4.988500848412513733e-03
4.550205077975988388e-03
4.294017271604388952e-04
-2.327320165932178497e-03
5.093221552670001984e-03
1.347223296761512756e-03
-3.798717400059103966e-03
-5.985678173601627350e-03
-1.342312060296535492e-02
-6.003252696245908737e-03
-4.137813113629817963e-03
-6.996461655944585800e-03
-8.462142199277877808e-03
-8.710543625056743622e-03
3.274069167673587799e-04
6.359002552926540375e-03
5.668967030942440033e-03
-5.229164846241474152e-03
-1.763672218658030033e-03
4.796470515429973602e-03
-6.004645954817533493e-03
-7.796845748089253902e-04
-1.956675434485077858e-03
-2.188092330470681190e-03
4.720852710306644440e-03
-5.053876433521509171e-03
-5.972336046397686005e-03
-6.327957380563020706e-03
4.422004334628582001e-03
-1.041223295032978058e-02
1.749284216202795506e-03
-8.125657215714454651e-03
-2.734696608968079090e-04
-2.247810829430818558e-03
-2.870450960472226143e-03
-1.494266791269183159e-03
7.947808480821549892e-04
3.142554196529090405e-04
-2.502905204892158508e-03
-6.553713697940111160e-03
-7.201935630291700363e-03
-7.100583054125308990e-03
-5.584947299212217331e-03
2.030856441706418991e-03
-9.002232691273093224e-04
-3.928313497453927994e-03
-3.750793635845184326e-03
-3.157139988616108894e-03
-5.477997940033674240e-03
-2.266603522002696991e-03
-1.481012091971933842e-03
-1.445507048629224300e-03
-2.243727678433060646e-03
4.790397826582193375e-03
-5.329384468495845795e-03
8.417484350502490997e-04
-3.487804904580116272e-03
-5.377253983169794083e-03
-9.384142234921455383e-03
-2.952319337055087090e-03
1.998505555093288422e-03
1.739742816425859928e-03
-8.561531081795692444e-03
-1.111695729196071625e-02
-3.371164901182055473e-03
-4.184598568826913834e-03
-6.239314097911119461e-03
-7.064143574098125100e-05
-7.402513176202774048e-03
-1.267171232029795647e-03
3.423720481805503368e-04
-1.042377483099699020e-02
3.805791726335883141e-03
-3.895775647833943367e-03
7.542312610894441605e-03
-4.265401978045701981e-03
5.070895422250032425e-04
-2.270331140607595444e-03
5.405072122812271118e-03
-3.114341292530298233e-03
-5.993023980408906937e-03
9.835909586399793625e-04
-3.698918037116527557e-03
-1.636127708479762077e-03
-7.825294509530067444e-03
5.770982243120670319e-03
-3.226122586056590080e-03
-4.002176225185394287e-03
-5.729100201278924942e-03
-2.458921400830149651e-03
-1.470179529860615730e-03
2.559939865022897720e-03
5.663793999701738358e-04
-3.979464236181229353e-04
1.958004664629697800e-03
-7.805974688380956650e-03
-5.822057835757732391e-03
3.054514527320861816e-03
1.675746025284752250e-04
1.519709941931068897e-03
-8.863738039508461952e-04
4.534490872174501419e-03
-7.509838324040174484e-03
-5.515968659892678261e-04
-2.791943028569221497e-03
-7.628981955349445343e-03
4.841310437768697739e-03
-7.519864477217197418e-03
-4.416170064359903336e-03
-1.781100581865757704e-04
1.818371529225260019e-04
-6.160810589790344238e-03
6.791971391066908836e-04
1.122514251619577408e-03
-2.424216363579034805e-03
-6.213702145032584667e-04
-3.193984273821115494e-03
-4.839670844376087189e-03
-3.124979266431182623e-04
-6.192169617861509323e-03
-5.619624163955450058e-03
-5.381869617849588394e-03
-5.547792650759220123e-03
-2.540192566812038422e-03
-8.983838371932506561e-03
-3.571337147150188684e-04
-6.769680883735418320e-03
-3.990290861111134291e-04
-2.704384678509086370e-04
-7.384456694126129150e-04
-6.438844371587038040e-03
-6.758078467100858688e-03
5.839160643517971039e-03
9.937503637047484517e-05
2.014323399635031819e-05
-4.732942208647727966e-03
-5.991287529468536377e-03
-9.242018684744834900e-03
-2.424067643005400896e-04
-4.579924978315830231e-03
-1.217189361341297626e-03
-6.002016831189393997e-03
-1.256385934539139271e-03
-6.160849705338478088e-03
-6.883059628307819366e-03
-2.935178810730576515e-03
-4.222824238240718842e-03
2.920906757935881615e-03
-4.440730903297662735e-03
-1.561391050927340984e-03
8.132521179504692554e-04
4.875085316598415375e-03
2.159039722755551338e-04
-6.170009262859821320e-03
2.374452771618962288e-03
-1.605597091838717461e-03
-1.531605841591954231e-03
-8.458832278847694397e-03
-2.790878759697079659e-03
-1.444308902136981487e-03
1.750575727783143520e-03
-1.441461849026381969e-03
-4.441563040018081665e-03
-5.988833494484424591e-03
-2.145758131518959999e-03
-5.403585731983184814e-03
-5.636753980070352554e-03
-8.984649553894996643e-03
-3.642643801867961884e-03
-2.255005994811654091e-03
1.979644177481532097e-03
-1.139650470577180386e-03
4.619688261300325394e-03
2.163649769499897957e-03
-6.785381585359573364e-03
-4.945113789290189743e-03
-8.542279829271137714e-05
2.980490680783987045e-03
-5.894606932997703552e-03
-8.066960610449314117e-03
-8.424405008554458618e-03
-4.273842088878154755e-03
-1.760829356499016285e-03
-3.648370038717985153e-03
-1.063145027728751302e-04
1.083891140297055244e-03
1.417998690158128738e-03
-5.528692156076431274e-03
1.020285184495151043e-03
-1.223330944776535034e-02
-6.509638857096433640e-03
-3.688326338306069374e-03
-2.477993955835700035e-03
3.757073136512190104e-05
-5.128582473844289780e-03
9.065698577614966780e-06
-9.852257557213306427e-03
-2.389347413554787636e-03
-2.077864948660135269e-03
-5.506273824721574783e-03
-4.914739634841680527e-03
-2.001633401960134506e-03
1.830329769290983677e-03
-5.030764266848564148e-03
-1.178333768621087074e-03
-4.194771870970726013e-03
-3.865142120048403740e-03
-6.001456640660762787e-03
-6.144628860056400299e-03
-5.161017179489135742e-05
5.005734041333198547e-03
-6.465083453804254532e-03
-3.786907531321048737e-03
3.688644850626587868e-03
-5.306768696755170822e-03
-2.229358768090605736e-03
5.461094900965690613e-03
-4.149993881583213806e-03
1.624959520995616913e-03
-6.782515905797481537e-03
-8.448241278529167175e-03
-2.120375633239746094e-03
1.543326303362846375e-03
-1.083130761981010437e-02
-8.841875940561294556e-03
-1.683178357779979706e-03
2.479169284924864769e-03
-2.529145916923880577e-03
-3.861841280013322830e-03
-5.451809149235486984e-03
-2.506548771634697914e-03
1.927283476106822491e-03
3.963816561736166477e-04
1.116147846914827824e-03
-6.343130487948656082e-03
-5.543308332562446594e-03
6.024351809173822403e-03
3.472703741863369942e-03
-3.701500128954648972e-03
-5.174125079065561295e-03
1.632791594602167606e-03
-4.053297918289899826e-03
-2.829205943271517754e-03
4.805760399904102087e-04
3.073960833717137575e-04
-3.176716854795813560e-03
2.303107175976037979e-03
-4.224865231662988663e-03
-1.166258472949266434e-03
-3.936061169952154160e-03
-1.322737894952297211e-03
2.480487339198589325e-03
2.511681057512760162e-03
6.931867450475692749e-03
